{"learner":{"attributes":{"scikit_learn":"{\"_estimator_type\": \"classifier\"}"},"feature_names":["TRUERANGE_1","SLOPE_6","SLOPE_3","SLOPE_1","MFI_6","ADX_3","DMP_3","DMN_3","WILLR_3","RSI_6","RSI_2","volume","SAVGOL"],"feature_types":["float","float","float","float","float","float","float","float","float","float","float","int","float"],"gradient_booster":{"model":{"gbtree_model_param":{"num_parallel_tree":"1","num_trees":"68"},"iteration_indptr":[0,1,2,3,4,5,6,7,8,9,10,11,12,13,14,15,16,17,18,19,20,21,22,23,24,25,26,27,28,29,30,31,32,33,34,35,36,37,38,39,40,41,42,43,44,45,46,47,48,49,50,51,52,53,54,55,56,57,58,59,60,61,62,63,64,65,66,67,68],"tree_info":[0,0,0,0,0,0,0,0,0,0,0,0,0,0,0,0,0,0,0,0,0,0,0,0,0,0,0,0,0,0,0,0,0,0,0,0,0,0,0,0,0,0,0,0,0,0,0,0,0,0,0,0,0,0,0,0,0,0,0,0,0,0,0,0,0,0,0,0],"trees":[{"base_weights":[-1.2080627E-2,4.3763146E-1,-4.7689977E-1,-7.495208E-1,6.49769E-1,-8.8726395E-1,2.5784627E-1,-1.7131323E0,-3.8548312E-1,1.723686E-1,1.0242792E0,-4.756409E-1,-1.3227204E0,1.0639235E-2,1.0387951E0,-7.459253E-2,-1.2421831E0,3.7907863E-1,-1.3652117E0,-5.657145E-1,9.453491E-1,2.5274366E-1,1.3244007E0,-1.1677692E0,3.1932706E-1,-1.5603509E0,-4.4673997E-1,8.384236E-1,-3.71152E-1,1.6876868E0,6.6254807E-1,-6.7090714E-1,-1.5689542E0,-1.3460988E0,5.4459584E-1,-1.418291E0,2.0178782E-2,7.0066017E-1,-8.236072E-1,4.995678E-1,1.3829399E0,8.634274E-1,-1.7250524E-1,1.3778391E0,-5.6278443E-1,-7.1405786E-1,-1.7031132E0,-3.1041196E-1,7.378727E-1,-1.6598291E0,-8.684081E-1,-7.212478E-1,4.9036136E-1,1.0885992E0,-4.2237788E-1,3.0123514E-1,-1.0414765E0,1.7489637E0,2.559065E-4,-2.764478E-1,1.0427375E0,4.7169125E-1,-5.444236E-2,-8.703923E-3,-7.047057E-2,2.559065E-4,-6.489961E-2,-6.805634E-2,1.0131977E0,-1.2594056E-1,-1.4984074E0,-5.0991237E-2,9.469709E-1,-9.634164E-1,6.226999E-1,1.1492876E0,-7.574093E-3,1.7525767E0,1.129212E0,1.1881531E0,-1.1510555E0,-9.0364665E-1,1.9887196E-1,1.0199722E0,1.5266899E0,-1.1712514E0,6.733647E-1,-2.83268E-1,-1.3372203E0,-1.9261918E0,-1.125808E0,-9.6246585E-2,-1.688512E0,-1.37667E0,8.8030887E-1,3.962769E-2,-1.6792476E0,-1.1492121E0,3.1826553E-1,-1.3944075E-1,-1.3593779E0,-4.066831E-2,7.991787E-1,5.017174E-1,1.3789233E0,-9.70678E-1,5.5498604E-2,-1.8863563E-1,8.070236E-1,-1.4399596E0,-3.2919702E-1,9.449695E-1,7.263777E-2,-9.010552E-1,4.603249E-1,6.354139E-1,1.4111214E0,-8.703923E-3,3.962769E-2,-4.822946E-1,5.6254804E-2,1.3264582E0,1.1253487E-2,-3.2442696E-2,2.6672909E-2,-5.0210613E-1,-1.560409E0,-2.7972412E-1,1.1723585E0,9.969777E-1,-1.0153534E0,9.278212E-1,-5.776687E-1,1.6956557E0,6.98421E-1,-4.2121732E-1,4.8570946E-1,2.559065E-4,1.8059528E0,-2.697504E-2,1.1831498E0,6.8806934E-1,1.4578385E0,-1.4772785E0,2.0178782E-2,4.7169125E-1,-1.0574915E0,4.965638E-1,-4.9529707E-1,1.4055046E0,7.4308157E-1,1.555593E0,-2.1564293E-1,-6.1359912E-2,2.0178782E-2,-2.0158479E-2,4.9800046E-2,-1.0546541E0,-3.530234E-2,-1.7782314E0,-7.4585474E-1,-7.662359E-2,-2.0158479E-2,-1.4774841E0,4.0990987E-1,4.7195408E-1,-7.8262293E-1,-7.047057E-2,-2.0158479E-2,2.559065E-4,-6.576612E-2,1.2047788E0,-1.350103E-1,-1.6974326E0,7.5775725E-3,4.7169125E-1,-1.3360363E0,-3.9929298E-1,9.3309987E-1,-4.558123E-1,3.2151985E-1,-1.642433E0,-5.809237E-1,5.9142713E-2,3.880265E-1,6.693841E-1,-4.9307756E-2,1.4333009E0,-2.0158479E-2,-1.3497391E0,-2.7972412E-1,7.0035917E-1,-4.6138147E-1,-4.848291E-1,1.2216372E0,-1.5436623E0,-3.2778943E-1,-8.375856E-1,1.5671624E-1,3.0564892E-4,5.389958E-2,-9.639613E-2,-5.839275E-2,-7.723255E-2,5.2025873E-2,1.3991954E0,-3.3045482E-2,2.559065E-4,1.4906998E0,3.72509E-2,-3.4450497E-2,3.385524E-4,5.700724E-2,5.389958E-2,-2.8657235E-2,-4.9307756E-2,1.62078E-2,-7.379511E-2,-4.7917932E-2,-3.0064952E-2,2.6672909E-2,5.059424E-3,5.2419093E-2,5.2025873E-2,2.559065E-4,-6.355022E-2,-2.9179875E-2,5.8632594E-2,7.0109386E-3,-4.9307756E-2,2.0178782E-2,2.0178782E-2,6.867199E-2,-3.0974763E-2,3.526928E-2,9.606526E-3,-3.151492E-2,7.6247114E-3,6.092054E-2,7.223548E-2,2.0178782E-2,3.5478123E-2,5.8637056E-2,-1.1124659E-2,3.4024183E-2,6.322944E-2,2.4244266E-2,-6.851027E-2,2.559065E-4,4.3803148E-2,-2.0158479E-2,-4.9514014E-2,5.059424E-3,2.4107296E-2,-4.066831E-2,-3.1471215E-2,2.654418E-2,6.1064515E-2,1.8539743E-2,3.490945E-2,3.8910136E-3,-2.18266E-2,6.20818E-2,-4.5651868E-2,1.859417E-2,-4.839253E-2,2.0178782E-2,-2.4670474E-2,1.31638665E-2,-7.3467135E-2,-2.18266E-2,-4.3241587E-2,7.6052356E-3,-6.8581685E-2,-1.5657058E-2,-2.697504E-2,3.6782995E-2,3.7139042E-3,4.172862E-2,3.0534359E-2,-3.9007183E-2,1.5531944E-2,5.5083677E-2,-2.631086E-2,3.523545E-2,-7.553589E-2,-5.8376458E-2,3.962769E-2,-8.703923E-3,2.0178782E-2,-5.7089496E-2,1.62078E-2,-4.5651868E-2,9.174552E-3,4.7112558E-2,8.330662E-3,-5.3207003E-2,-3.4582954E-2,2.9353922E-2,-6.900634E-2,2.559065E-4,3.5968404E-2,-4.723569E-2,-3.2442696E-2,2.809583E-2,-3.2442696E-2,3.2038324E-2,3.8546808E-2,6.822715E-2,2.559065E-4,-6.2191393E-2,1.028454E-2,-4.5651868E-2,4.1100398E-2,-4.5651868E-2,-2.372001E-2,2.9743314E-2,9.894682E-3,-4.723569E-2,-2.0158479E-2,5.087034E-2,-1.5740214E-2,-6.311876E-2,-4.656154E-2,2.2866486E-2,-4.21332E-2,3.1807248E-2,3.2858204E-2,-7.6495013E-3,-3.6925796E-2,2.6592206E-2,2.3489887E-2,-4.9307756E-2,6.0492568E-2,2.1896353E-2,-3.2538775E-2,3.5761293E-2,2.559065E-4,6.2279273E-2],"categories":[],"categories_nodes":[],"categories_segments":[],"categories_sizes":[],"default_left":[0,0,0,0,0,0,0,0,0,0,0,0,0,0,0,0,0,0,0,0,0,0,0,0,0,0,0,0,0,0,0,0,0,0,0,0,0,0,0,0,0,0,0,0,0,0,0,0,0,0,0,0,0,0,0,0,0,0,0,0,0,0,0,0,0,0,0,0,0,0,0,0,0,0,0,0,0,0,0,0,0,0,0,0,0,0,0,0,0,0,0,0,0,0,0,0,0,0,0,0,0,0,0,0,0,0,0,0,0,0,0,0,0,0,0,0,0,0,0,0,0,0,0,0,0,0,0,0,0,0,0,0,0,0,0,0,0,0,0,0,0,0,0,0,0,0,0,0,0,0,0,0,0,0,0,0,0,0,0,0,0,0,0,0,0,0,0,0,0,0,0,0,0,0,0,0,0,0,0,0,0,0,0,0,0,0,0,0,0,0,0,0,0,0,0,0,0,0,0,0,0,0,0,0,0,0,0,0,0,0,0,0,0,0,0,0,0,0,0,0,0,0,0,0,0,0,0,0,0,0,0,0,0,0,0,0,0,0,0,0,0,0,0,0,0,0,0,0,0,0,0,0,0,0,0,0,0,0,0,0,0,0,0,0,0,0,0,0,0,0,0,0,0,0,0,0,0,0,0,0,0,0,0,0,0,0,0,0,0,0,0,0,0,0,0,0,0,0,0,0,0,0,0,0,0,0,0,0,0,0,0,0,0,0,0,0,0,0,0,0,0,0,0,0,0,0,0,0,0,0,0,0,0,0,0,0,0,0,0],"id":0,"left_children":[1,3,5,7,9,11,13,15,17,19,21,23,25,27,29,-1,31,33,35,37,39,41,43,45,47,49,51,53,55,57,59,61,63,65,67,69,-1,71,73,75,77,79,81,83,85,87,89,91,93,95,97,99,101,103,105,107,109,111,-1,113,115,117,-1,-1,-1,-1,-1,119,121,123,125,-1,127,129,131,133,135,137,139,141,143,145,147,149,151,153,155,157,159,161,163,165,167,169,171,-1,173,175,177,179,181,-1,183,185,187,189,-1,191,193,195,197,199,-1,201,203,205,207,-1,-1,209,-1,211,213,-1,-1,215,217,219,221,223,225,227,229,231,233,235,237,-1,239,-1,241,243,245,247,-1,249,251,253,255,257,259,261,263,-1,-1,-1,-1,265,267,269,271,-1,-1,273,275,277,279,-1,-1,-1,-1,281,283,285,-1,287,289,291,293,295,297,299,301,-1,303,305,-1,307,-1,309,311,313,315,317,319,321,323,325,327,-1,-1,329,-1,331,-1,333,335,-1,337,-1,-1,-1,-1,-1,-1,-1,-1,-1,-1,-1,-1,-1,-1,-1,-1,-1,-1,-1,-1,-1,-1,-1,-1,-1,-1,-1,-1,-1,-1,-1,-1,-1,-1,-1,-1,-1,-1,-1,-1,-1,-1,-1,-1,-1,-1,-1,-1,-1,-1,-1,-1,-1,-1,-1,-1,-1,-1,-1,-1,-1,-1,-1,-1,-1,-1,-1,-1,-1,-1,-1,-1,-1,-1,-1,-1,-1,-1,-1,-1,-1,-1,-1,-1,-1,-1,-1,-1,-1,-1,-1,-1,-1,-1,-1,-1,-1,-1,-1,-1,-1,-1,-1,-1,-1,-1,-1,-1,-1,-1,-1,-1,-1,-1,-1,-1,-1,-1,-1,-1,-1,-1,-1,-1,-1,-1,-1,-1,-1,-1],"loss_changes":[4.0706946E2,2.4975443E2,2.8895557E2,5.214054E1,1.5005591E2,1.0954346E2,6.6388535E1,1.1063385E0,8.331742E1,2.1196745E2,1.086517E2,1.7508667E2,6.135907E1,8.319412E1,1.906897E1,0E0,1.5986423E0,1.8685213E1,5.575119E0,6.2694893E1,3.4693237E1,3.470092E1,3.4924988E1,4.006607E1,3.9389107E1,1.4672607E1,1.7078417E1,2.6666569E1,8.151909E1,3.0484009E0,1.956054E1,6.2624645E0,2.0490475E0,2.3628712E0,1.6742435E1,4.7392426E0,0E0,1.72971E1,3.2645897E1,3.0131802E1,6.5529175E0,3.7204285E1,2.1702847E1,1.5999634E1,8.336243E0,2.4779648E1,7.779434E0,1.755311E1,2.8182861E1,1.2223694E1,1.0869894E1,1.8630106E1,8.027898E0,1.11683655E1,1.5894625E1,2.263046E1,2.5197746E1,4.170227E-1,0E0,7.93839E0,4.9006996E0,1.4767256E0,0E0,0E0,0E0,0E0,0E0,1.6857244E1,1.0333477E1,2.72194E0,1.9792862E0,0E0,8.539724E0,1.5766037E1,5.8748493E0,8.6898E0,1.0883678E1,3.270424E0,6.361183E0,5.4259796E0,5.1573515E0,6.1864815E0,1.1277989E1,9.61261E0,1.1956116E1,5.3945894E0,3.4033E0,1.0804348E1,8.593636E0,3.561859E-1,1.3532789E1,2.10437E1,2.1188736E-2,2.4480486E0,2.8002823E1,0E0,7.217224E0,8.415142E0,3.37925E0,4.1759E0,4.347519E0,0E0,3.253027E0,8.068666E0,5.4610977E0,2.6951323E0,0E0,1.1694143E1,2.460153E1,6.1492004E0,8.467157E0,1.985569E0,0E0,4.146078E0,3.873167E0,1.0342778E1,2.1664772E0,0E0,0E0,1.2670637E1,0E0,3.9479485E0,9.865037E0,0E0,0E0,3.3141456E0,2.197815E0,3.0182428E0,3.9839325E0,1.3485041E0,2.206543E1,4.7738447E0,3.259119E0,6.507492E-2,7.5958834E0,7.4888444E0,7.23863E0,0E0,2.3348999E-1,0E0,3.4423447E0,3.4017963E0,2.718052E0,2.734045E0,0E0,2.7031171E0,5.926565E0,7.284011E0,6.38969E0,4.72332E0,5.442196E0,1.0107666E1,3.5543628E0,0E0,0E0,0E0,0E0,4.3546743E0,9.787082E0,1.1726303E0,6.134736E0,0E0,0E0,4.8887596E0,3.6398706E0,6.4649644E0,8.6229925E0,0E0,0E0,0E0,0E0,9.4637985E0,1.2300414E1,6.666321E0,0E0,1.4767256E0,5.57444E0,2.8407564E0,4.5041275E-1,1.0303181E1,6.6547046E0,3.0589447E0,8.434574E0,0E0,4.4145927E0,5.613495E0,0E0,4.4008865E0,0E0,2.2710896E0,2.8746586E0,8.463311E0,6.680569E0,6.394009E0,4.7413445E0,2.816925E0,5.4816737E0,7.19308E0,4.4578013E0,0E0,0E0,3.818342E0,0E0,5.4586844E0,0E0,2.2524834E-1,9.489209E0,0E0,2.4279327E0,0E0,0E0,0E0,0E0,0E0,0E0,0E0,0E0,0E0,0E0,0E0,0E0,0E0,0E0,0E0,0E0,0E0,0E0,0E0,0E0,0E0,0E0,0E0,0E0,0E0,0E0,0E0,0E0,0E0,0E0,0E0,0E0,0E0,0E0,0E0,0E0,0E0,0E0,0E0,0E0,0E0,0E0,0E0,0E0,0E0,0E0,0E0,0E0,0E0,0E0,0E0,0E0,0E0,0E0,0E0,0E0,0E0,0E0,0E0,0E0,0E0,0E0,0E0,0E0,0E0,0E0,0E0,0E0,0E0,0E0,0E0,0E0,0E0,0E0,0E0,0E0,0E0,0E0,0E0,0E0,0E0,0E0,0E0,0E0,0E0,0E0,0E0,0E0,0E0,0E0,0E0,0E0,0E0,0E0,0E0,0E0,0E0,0E0,0E0,0E0,0E0,0E0,0E0,0E0,0E0,0E0,0E0,0E0,0E0,0E0,0E0,0E0,0E0,0E0,0E0,0E0,0E0,0E0,0E0,0E0,0E0,0E0,0E0,0E0,0E0,0E0,0E0,0E0,0E0,0E0],"parents":[2147483647,0,0,1,1,2,2,3,3,4,4,5,5,6,6,7,7,8,8,9,9,10,10,11,11,12,12,13,13,14,14,16,16,17,17,18,18,19,19,20,20,21,21,22,22,23,23,24,24,25,25,26,26,27,27,28,28,29,29,30,30,31,31,32,32,33,33,34,34,35,35,37,37,38,38,39,39,40,40,41,41,42,42,43,43,44,44,45,45,46,46,47,47,48,48,49,49,50,50,51,51,52,52,53,53,54,54,55,55,56,56,57,57,59,59,60,60,61,61,67,67,68,68,69,69,70,70,72,72,73,73,74,74,75,75,76,76,77,77,78,78,79,79,80,80,81,81,82,82,83,83,84,84,85,85,86,86,87,87,88,88,89,89,90,90,91,91,92,92,93,93,94,94,96,96,97,97,98,98,99,99,100,100,102,102,103,103,104,104,105,105,107,107,108,108,109,109,110,110,111,111,113,113,114,114,115,115,116,116,119,119,121,121,122,122,125,125,126,126,127,127,128,128,129,129,130,130,131,131,132,132,133,133,134,134,135,135,136,136,138,138,140,140,141,141,142,142,143,143,145,145,146,146,147,147,148,148,149,149,150,150,151,151,152,152,157,157,158,158,159,159,160,160,163,163,164,164,165,165,166,166,171,171,172,172,173,173,175,175,176,176,177,177,178,178,179,179,180,180,181,181,182,182,184,184,185,185,187,187,189,189,190,190,191,191,192,192,193,193,194,194,195,195,196,196,197,197,198,198,201,201,203,203,205,205,206,206,208,208],"right_children":[2,4,6,8,10,12,14,16,18,20,22,24,26,28,30,-1,32,34,36,38,40,42,44,46,48,50,52,54,56,58,60,62,64,66,68,70,-1,72,74,76,78,80,82,84,86,88,90,92,94,96,98,100,102,104,106,108,110,112,-1,114,116,118,-1,-1,-1,-1,-1,120,122,124,126,-1,128,130,132,134,136,138,140,142,144,146,148,150,152,154,156,158,160,162,164,166,168,170,172,-1,174,176,178,180,182,-1,184,186,188,190,-1,192,194,196,198,200,-1,202,204,206,208,-1,-1,210,-1,212,214,-1,-1,216,218,220,222,224,226,228,230,232,234,236,238,-1,240,-1,242,244,246,248,-1,250,252,254,256,258,260,262,264,-1,-1,-1,-1,266,268,270,272,-1,-1,274,276,278,280,-1,-1,-1,-1,282,284,286,-1,288,290,292,294,296,298,300,302,-1,304,306,-1,308,-1,310,312,314,316,318,320,322,324,326,328,-1,-1,330,-1,332,-1,334,336,-1,338,-1,-1,-1,-1,-1,-1,-1,-1,-1,-1,-1,-1,-1,-1,-1,-1,-1,-1,-1,-1,-1,-1,-1,-1,-1,-1,-1,-1,-1,-1,-1,-1,-1,-1,-1,-1,-1,-1,-1,-1,-1,-1,-1,-1,-1,-1,-1,-1,-1,-1,-1,-1,-1,-1,-1,-1,-1,-1,-1,-1,-1,-1,-1,-1,-1,-1,-1,-1,-1,-1,-1,-1,-1,-1,-1,-1,-1,-1,-1,-1,-1,-1,-1,-1,-1,-1,-1,-1,-1,-1,-1,-1,-1,-1,-1,-1,-1,-1,-1,-1,-1,-1,-1,-1,-1,-1,-1,-1,-1,-1,-1,-1,-1,-1,-1,-1,-1,-1,-1,-1,-1,-1,-1,-1,-1,-1,-1,-1,-1,-1],"split_conditions":[1.0267857E0,-2.01E2,7.9E1,-4.2E2,1.5170664E1,5.1666665E0,3.01E2,-4.92E2,-1.150625E2,-3.0249634E1,3.5100183E0,7.5483875E0,9.638222E1,8.86666E1,1.3186607E2,-7.459253E-2,4.8379044E1,4.169204E1,5.6833405E1,-1.3759822E2,9.621416E1,-8.657143E1,6.2453823E1,5.7223213E1,-6.0940033E1,7.7732765E1,1.9866667E2,1.7916072E2,8.80625E1,1.032E3,3.83E2,6.5417137E0,4.9341484E1,-6.7333336E1,-1.04166664E2,-9.840336E1,2.0178782E-2,4.9266598E1,9.45962E1,-6.633929E1,-7.288393E1,4.74E2,-1.24666664E2,2.7470882E1,6.129749E1,2.42E2,4.340157E0,-1.3333333E1,8.818996E0,6.6310782E0,5.1048485E1,4.85625E1,6.918764E1,3.683903E1,6.3695614E1,9.705929E1,7.9818535E1,3.96E2,2.559065E-4,6.1636604E1,5.42E2,-2.1066667E2,-5.444236E-2,-8.703923E-3,-7.047057E-2,2.559065E-4,-6.489961E-2,3.666711E0,-2.7E1,1.72734E5,2.74E2,-5.0991237E-2,8.5654E4,3.1095821E1,-1.9732143E1,5.9E1,-1.8810513E1,4.2333332E1,1.4371881E-1,-1.4E2,-7.2833725E1,3.0433588E1,-2.74375E1,-9.35E1,1.7833334E1,5E0,1.7059275E1,-8.7E1,-8.237885E1,1.0324035E1,-5.4E1,7.660714E1,6.494659E1,2.1072634E1,1.0576786E2,3.962769E-2,1.158E3,1.7E1,2.1E2,9.7867165E1,8.210847E1,-4.066831E-2,-1.453252E1,-4.0666668E1,2.3166666E1,1.97E2,5.5498604E-2,2.4714285E1,8.0333336E1,3.07494E5,5.2372322E1,6.456221E1,7.263777E-2,4.27E2,9.745847E1,2.1471428E2,6.21E2,-8.703923E-3,3.962769E-2,-2.728482E2,5.6254804E-2,-3.67E2,-2.728482E2,-3.2442696E-2,2.6672909E-2,-9.577465E1,3.070627E0,7.701019E0,-7.0136986E1,1.53E2,5.5092445E1,5.1833332E1,1.84938E5,-5.1E1,6.760546E1,1.12756E5,3.16E2,2.559065E-4,7.57E2,-2.697504E-2,1.16333336E2,-1.4333333E2,-9.567857E1,-1.3966667E2,2.0178782E-2,-1.34E2,3.1935034E0,4.0570633E1,-7.551488E1,5.3386074E1,3.1605352E1,-9.611198E1,-8.7E1,-6.1359912E-2,2.0178782E-2,-2.0158479E-2,4.9800046E-2,2.36E2,-8.4742645E1,4.809319E0,5.170474E0,-7.662359E-2,-2.0158479E-2,-7.3741005E1,5.1882065E1,2.9337503E1,7.0126E4,-7.047057E-2,-2.0158479E-2,2.559065E-4,-6.576612E-2,3.0481838E1,5.3467834E1,7.761127E1,7.5775725E-3,-2.5E1,2.3817383E1,1.25666664E2,2.73E2,7.6333336E1,1.6E2,7.5E1,9.7334816E1,5.9142713E-2,-1.23046875E1,-1.79E2,-4.9307756E-2,6.053391E1,-2.0158479E-2,2.12E2,-4.6551723E1,3.82E2,1.175E2,1.4519E5,8.6E1,7.8257E4,9.638222E1,2.35E2,1.4114285E2,3.0564892E-4,5.389958E-2,4.06E2,-5.839275E-2,2.70085E5,5.2025873E-2,2.6533334E2,6.435118E1,2.559065E-4,1.7880768E1,3.72509E-2,-3.4450497E-2,3.385524E-4,5.700724E-2,5.389958E-2,-2.8657235E-2,-4.9307756E-2,1.62078E-2,-7.379511E-2,-4.7917932E-2,-3.0064952E-2,2.6672909E-2,5.059424E-3,5.2419093E-2,5.2025873E-2,2.559065E-4,-6.355022E-2,-2.9179875E-2,5.8632594E-2,7.0109386E-3,-4.9307756E-2,2.0178782E-2,2.0178782E-2,6.867199E-2,-3.0974763E-2,3.526928E-2,9.606526E-3,-3.151492E-2,7.6247114E-3,6.092054E-2,7.223548E-2,2.0178782E-2,3.5478123E-2,5.8637056E-2,-1.1124659E-2,3.4024183E-2,6.322944E-2,2.4244266E-2,-6.851027E-2,2.559065E-4,4.3803148E-2,-2.0158479E-2,-4.9514014E-2,5.059424E-3,2.4107296E-2,-4.066831E-2,-3.1471215E-2,2.654418E-2,6.1064515E-2,1.8539743E-2,3.490945E-2,3.8910136E-3,-2.18266E-2,6.20818E-2,-4.5651868E-2,1.859417E-2,-4.839253E-2,2.0178782E-2,-2.4670474E-2,1.31638665E-2,-7.3467135E-2,-2.18266E-2,-4.3241587E-2,7.6052356E-3,-6.8581685E-2,-1.5657058E-2,-2.697504E-2,3.6782995E-2,3.7139042E-3,4.172862E-2,3.0534359E-2,-3.9007183E-2,1.5531944E-2,5.5083677E-2,-2.631086E-2,3.523545E-2,-7.553589E-2,-5.8376458E-2,3.962769E-2,-8.703923E-3,2.0178782E-2,-5.7089496E-2,1.62078E-2,-4.5651868E-2,9.174552E-3,4.7112558E-2,8.330662E-3,-5.3207003E-2,-3.4582954E-2,2.9353922E-2,-6.900634E-2,2.559065E-4,3.5968404E-2,-4.723569E-2,-3.2442696E-2,2.809583E-2,-3.2442696E-2,3.2038324E-2,3.8546808E-2,6.822715E-2,2.559065E-4,-6.2191393E-2,1.028454E-2,-4.5651868E-2,4.1100398E-2,-4.5651868E-2,-2.372001E-2,2.9743314E-2,9.894682E-3,-4.723569E-2,-2.0158479E-2,5.087034E-2,-1.5740214E-2,-6.311876E-2,-4.656154E-2,2.2866486E-2,-4.21332E-2,3.1807248E-2,3.2858204E-2,-7.6495013E-3,-3.6925796E-2,2.6592206E-2,2.3489887E-2,-4.9307756E-2,6.0492568E-2,2.1896353E-2,-3.2538775E-2,3.5761293E-2,2.559065E-4,6.2279273E-2],"split_indices":[12,3,3,3,7,1,3,3,12,8,10,10,10,10,12,0,7,5,10,12,10,12,4,12,8,9,2,12,12,0,3,6,5,1,1,8,0,9,10,12,12,0,2,9,9,0,10,2,7,6,6,12,5,9,10,10,9,0,0,5,3,2,0,0,0,0,0,10,1,11,0,0,11,4,12,1,8,2,7,3,8,7,12,12,1,3,7,3,8,6,2,12,5,6,12,0,0,2,2,10,9,0,8,1,1,3,0,12,2,11,6,4,0,0,10,12,0,0,0,12,0,3,12,0,0,8,10,7,8,0,9,1,11,3,10,11,0,0,3,0,2,1,12,1,0,2,10,4,8,7,4,8,3,0,0,0,0,0,8,10,6,0,0,8,5,4,11,0,0,0,0,9,10,10,0,3,6,2,0,2,0,3,10,0,8,2,0,10,0,0,8,0,1,11,3,11,10,1,12,0,0,0,0,11,0,2,5,0,4,0,0,0,0,0,0,0,0,0,0,0,0,0,0,0,0,0,0,0,0,0,0,0,0,0,0,0,0,0,0,0,0,0,0,0,0,0,0,0,0,0,0,0,0,0,0,0,0,0,0,0,0,0,0,0,0,0,0,0,0,0,0,0,0,0,0,0,0,0,0,0,0,0,0,0,0,0,0,0,0,0,0,0,0,0,0,0,0,0,0,0,0,0,0,0,0,0,0,0,0,0,0,0,0,0,0,0,0,0,0,0,0,0,0,0,0,0,0,0,0,0,0,0,0,0,0,0,0,0,0],"split_type":[0,0,0,0,0,0,0,0,0,0,0,0,0,0,0,0,0,0,0,0,0,0,0,0,0,0,0,0,0,0,0,0,0,0,0,0,0,0,0,0,0,0,0,0,0,0,0,0,0,0,0,0,0,0,0,0,0,0,0,0,0,0,0,0,0,0,0,0,0,0,0,0,0,0,0,0,0,0,0,0,0,0,0,0,0,0,0,0,0,0,0,0,0,0,0,0,0,0,0,0,0,0,0,0,0,0,0,0,0,0,0,0,0,0,0,0,0,0,0,0,0,0,0,0,0,0,0,0,0,0,0,0,0,0,0,0,0,0,0,0,0,0,0,0,0,0,0,0,0,0,0,0,0,0,0,0,0,0,0,0,0,0,0,0,0,0,0,0,0,0,0,0,0,0,0,0,0,0,0,0,0,0,0,0,0,0,0,0,0,0,0,0,0,0,0,0,0,0,0,0,0,0,0,0,0,0,0,0,0,0,0,0,0,0,0,0,0,0,0,0,0,0,0,0,0,0,0,0,0,0,0,0,0,0,0,0,0,0,0,0,0,0,0,0,0,0,0,0,0,0,0,0,0,0,0,0,0,0,0,0,0,0,0,0,0,0,0,0,0,0,0,0,0,0,0,0,0,0,0,0,0,0,0,0,0,0,0,0,0,0,0,0,0,0,0,0,0,0,0,0,0,0,0,0,0,0,0,0,0,0,0,0,0,0,0,0,0,0,0,0,0,0,0,0,0,0,0,0,0,0,0,0,0,0,0,0,0,0,0],"sum_hessian":[1.9453783E3,9.887866E2,9.565916E2,1.495197E2,8.3926697E2,6.1365216E2,3.4293942E2,3.998173E1,1.09537964E2,3.695939E2,4.6967303E2,3.1653452E2,2.9711768E2,2.612539E2,8.1685524E1,2.6779274E1,1.3202456E1,6.1869358E1,4.7668606E1,1.8920193E2,1.8039198E2,1.3204953E2,3.376235E2,1.6896149E2,1.4757301E2,2.3310197E2,6.401569E1,8.208484E1,1.7916907E2,2.8700994E1,5.2984528E1,5.9149003E0,7.287556E0,4.7918177E0,5.707754E1,4.6595436E1,1.0731676E0,3.1720837E1,1.574811E2,9.042061E1,8.9971375E1,5.3783165E1,7.826636E1,3.2858893E2,9.034574E0,9.271668E1,7.624481E1,5.9024216E1,8.8548805E1,2.0257909E2,3.052288E1,4.969015E1,1.432554E1,6.860785E1,1.3476988E1,8.97218E1,8.9447266E1,2.7652784E1,1.0482101E0,1.5348792E1,3.763574E1,2.395909E0,3.5189912E0,1.297784E0,5.9897723E0,1.0482101E0,3.7436075E0,2.510713E1,3.1970411E1,2.8700993E0,4.3725338E1,3.0198436E0,2.8700993E1,1.4390428E2,1.35768175E1,3.9083267E1,5.133734E1,3.4216576E1,5.57548E1,4.667031E1,7.1128545E0,2.5880808E1,5.238555E1,9.8831245E1,2.2975769E2,6.089602E0,2.9449716E0,5.5679924E1,3.703676E1,5.330897E1,2.2935837E1,5.2011192E1,7.013025E0,5.041392E0,8.350741E1,1.098125E0,2.0148096E2,2.4707811E1,5.8150706E0,2.662953E1,2.3060623E1,2.021548E0,1.2303991E1,2.3609686E1,4.4998165E1,1.0731675E1,2.7453125E0,4.589663E1,4.382517E1,5.670318E1,3.2744087E1,4.0430965E0,2.3609688E1,8.186022E0,7.16277E0,1.9167273E1,1.8468466E1,1.297784E0,1.098125E0,2.0190525E1,4.916605E0,2.4108835E1,7.861576E0,1.5224005E0,1.3476988E0,3.0947156E0,4.0630623E1,4.417457E0,2.4283537E1,3.24446E0,1.4065982E2,1.1006207E1,2.5706105E0,1.642196E1,2.2661306E1,2.8002186E1,2.3335155E1,1.0482101E0,3.3168365E1,1.2728267E0,5.448197E1,1.7594957E1,2.9075354E1,6.039687E0,1.0731676E0,2.395909E0,2.34849E1,3.6862057E1,1.5523494E1,3.9607372E1,5.9223877E1,2.2611392E2,3.6437783E0,5.016434E0,1.0731676E0,1.0232527E0,1.9217187E0,1.2753223E1,4.29267E1,2.0065737E1,1.6971022E1,5.228572E1,1.0232527E0,1.869308E1,4.2427554E0,2.8626122E1,2.3385069E1,5.9897723E0,1.0232527E0,1.0482101E0,3.9931815E0,6.3142185E1,2.0365227E1,1.9963412E2,1.8468465E0,2.395909E0,2.2311901E1,2.845142E0,2.969929E0,1.5798024E1,1.0831505E1,1.6097513E1,6.9631104E0,3.5689063E0,8.735085E0,2.2112244E1,1.4974431E0,4.3974915E1,1.0232527E0,6.314218E0,4.417457E0,1.0407229E1,3.5489403E1,1.0606889E1,3.321828E1,5.1512043E1,5.191136E0,1.564828E1,1.7095808E1,1.5723152E0,2.4707813E0,3.9183095E0,4.2677126E0,4.96652E0,2.19625E0,8.435596E0,1.0731675E1,1.0482101E0,1.7420256E1,4.0430965E0,1.6147429E1,2.0964203E0,2.2012415E1,2.4707813E0,5.390795E0,1.4974431E0,1.5972726E0,1.9017527E1,2.1613094E1,3.0697584E0,1.3476988E0,3.4191618E0,2.0864374E1,2.19625E0,1.0482101E0,4.285183E1,9.780799E1,5.7401986E0,5.2660084E0,1.4974431E0,1.0731676E0,1.0731676E0,1.5348792E1,2.2960794E0,2.0365227E1,1.0282443E1,1.7719744E1,1.9217186E1,4.1179686E0,3.20952E1,1.0731676E0,3.0273308E1,2.4208664E1,2.595568E0,1.4999389E1,2.4009005E1,5.066349E0,4.991477E0,1.0482101E0,1.3726562E0,1.0232527E0,2.0065737E1,3.4191618E0,3.484051E1,2.021548E0,1.2578522E1,2.9449716E0,3.376734E1,5.8400283E0,4.819271E1,1.1031164E1,1.7969317E0,2.2431699E2,1.2478693E0,2.395909E0,1.1680056E1,1.0731676E0,1.6247257E1,2.6679445E1,1.8268805E1,1.7969317E0,1.2229118E1,4.7419033E0,1.4550155E1,4.1429257E0,1.2728267E0,2.969929E0,1.8119062E1,1.0507059E1,2.4208665E0,2.0964203E1,1.2703309E1,5.0438877E1,1.365169E1,6.7135367E0,9.541208E1,1.0422204E2,1.098125E0,1.297784E0,1.0731676E0,2.1238733E1,1.5972726E0,1.2478693E0,1.3227414E0,1.6471875E0,9.483807E0,6.314218E0,2.5456533E0,8.285852E0,1.5049303E1,1.0482101E0,1.8967613E0,5.066349E0,1.5224005E0,7.2126846E0,1.5224005E0,2.0589844E1,1.9067442E1,2.490747E1,1.0482101E0,5.266008E0,3.1695879E0,1.2478693E0,9.159361E0,1.2478693E0,3.2269897E1,3.2195027E0,5.5405397E0,5.066349E0,1.0232527E0,3.2195026E1,2.845142E0,4.86669E1,2.520696E0,2.6704402E0,1.4026051E1,1.62223E0,5.365838E0,1.1729971E1,1.7719743E0,2.1463351E0,3.4690766E0,1.4974431E0,6.5637927E0,1.8718039E0,5.8899426E0,4.841733E0,1.0482101E0,1.6372046E1],"tree_param":{"num_deleted":"0","num_feature":"13","num_nodes":"339","size_leaf_vector":"1"}},{"base_weights":[-6.555508E-3,4.244743E-1,-4.4028068E-1,-7.616841E-1,6.2020636E-1,-8.242847E-1,2.4827652E-1,-4.135704E-1,-1.5824996E0,9.9585503E-1,1.7972976E-1,-4.3885306E-1,-1.2508613E0,7.5424683E-1,-2.2168504E-1,-1.6136403E0,2.6885318E-2,-1.64613E0,8.8762236E-4,2.6377633E-1,1.2612526E0,-3.545794E-1,1.0137107E0,-9.475872E-1,6.482545E-1,-1.4932567E0,-2.9393914E-1,5.909415E-1,1.5060445E0,-6.452555E-1,8.959053E-1,-1.8081505E0,-7.859288E-1,1.3090012E0,-2.1240675E-1,1.6600336E-4,-1.7136719E0,-8.7689525E-1,4.9591392E-1,-1.2433975E0,1.2973393E0,8.06628E-1,-5.92471E-1,1.553861E0,6.8898696E-1,-4.929075E-1,-1.435965E0,9.403341E-1,-3.0060685E-1,-1.7045761E0,-1.1789495E0,2.143701E-1,-6.9693303E-1,1.1068543E0,2.3632316E-1,-4.8301017E-4,1.5617428E0,1.9773367E-1,-1.0122207E0,4.409448E-1,1.4438258E0,-1.8653797E-2,-1.8528501E0,-1.1938051E0,8.393857E-3,6.336285E-2,-1.6220937E-2,2.0207757E-2,-1.2210472E0,-2.4891837E-2,-6.927122E-2,6.7856306E-1,-1.164125E0,1.1537021E0,1.6322441E-2,5.7930604E-4,-6.1389428E-2,9.8300445E-1,1.5699368E0,-3.9458317E-1,1.1694801E0,1.3435229E0,-7.2220516E-1,-9.468526E-3,1.5999272E0,1.8096496E-1,9.8894376E-1,-1.382439E0,-1.1646213E-1,-1.870558E0,-9.8045814E-1,-1.0243887E0,1.0905159E0,-1.1889108E0,2.3166986E-1,-1.7323159E0,1.7186405E-2,-7.9970944E-1,-1.5857424E0,4.052909E-1,-6.7036146E-1,-1.2121452E0,9.210877E-2,4.1201997E-1,1.3743831E0,-1.8833482E-1,6.7872316E-1,8.717098E-3,1.6182781E0,1.2275087E0,-3.7343878E-1,-1.4925059E0,-5.1626927E-1,-4.096213E-1,9.09674E-1,-6.706525E-5,1.5138065E0,-1.8653797E-2,-7.499193E-2,-1.52835045E-2,-5.6749795E-2,-7.230283E-1,6.91384E-1,-7.11895E-2,4.317722E-1,-1.9493261E-2,4.9630657E-2,-1.2029319E-1,-1.3503919E0,-1.55223E-1,1.2319365E0,-5.450831E-1,3.8572818E-1,1.2163221E0,3.711586E-1,9.176591E-1,1.6415893E0,9.8363925E-3,-4.650872E-2,4.7899622E-1,1.5420579E0,-1.9621387E-2,6.0859058E-2,-1.1972996E0,-3.0347744E-1,7.260715E-1,1.6395994E0,1.130238E0,-6.3726656E-2,5.7918674E-1,1.3132837E0,-1.6929784E0,-9.397097E-1,-1.0008395E0,4.9807366E-2,-2.4900284E-2,-7.516148E-2,7.8167534E-1,-1.0755172E0,2.0173667E-2,-5.652948E-2,-4.3878943E-2,1.1726009E0,-5.960322E-2,8.6307665E-3,-2.1297196E-1,5.895737E-2,-1.7525965E0,9.7106403E-4,-8.7982976E-1,3.5589214E-2,-1.6456808E0,1.992737E-2,-8.18874E-2,7.02115E-1,1.6650796E-1,-5.4719377E-2,-8.5798346E-2,-1.4235216E0,9.9735594E-1,-3.8240683E-1,6.426675E-1,-4.8100132E-2,1.435526E0,-2.0314708E-2,8.454199E-1,-4.2203718E-1,-2.4904445E-1,9.623763E-1,6.488281E-2,1.909701E-2,3.951749E-1,6.597569E-2,1.06787585E-1,-1.1398277E0,-9.6121645E-1,-1.744963E0,-7.002191E-1,4.5795622E-1,5.110627E-2,-1.47938E0,1.1382687E0,-1.2100834E-1,4.6785468E-1,1.61953E0,-4.848991E-2,-1.014808E-2,4.775256E-2,-5.7019694E-3,4.767333E-2,-2.6158331E-2,-3.666025E-2,3.969808E-2,-6.773313E-3,-5.8953624E-2,-2.7170734E-2,1.9917158E-2,2.8653037E-2,5.7332642E-2,7.142931E-3,-4.0835522E-2,2.7923778E-2,-7.7995774E-3,1.8440332E-2,5.114694E-2,-8.742958E-3,2.9826058E-2,4.9197715E-2,-1.3500942E-2,5.014084E-3,6.5587595E-2,-4.6174124E-2,3.1301107E-2,4.573922E-2,-5.955511E-4,-8.926094E-3,6.600888E-2,-5.5285443E-2,-1.7811194E-2,5.608482E-4,-3.0136574E-2,-9.55211E-3,4.884576E-2,3.5582088E-2,6.631658E-2,6.0593482E-2,5.682191E-3,-8.561403E-3,4.3906502E-2,3.8978394E-2,-2.312353E-3,2.6580362E-2,6.197593E-2,1.1015508E-3,-7.063363E-2,-4.4825595E-2,7.380198E-3,-5.777807E-2,1.0183636E-3,8.088651E-3,-4.2834036E-2,5.6913355E-4,4.393795E-2,-4.894042E-2,-1.07029285E-2,3.0170152E-2,5.693192E-2,2.0570189E-2,-2.0572728E-2,-4.417571E-2,8.785087E-3,-7.2191946E-2,-4.5317356E-2,-4.0591795E-2,-4.7118985E-3,-3.877919E-2,-7.150444E-2,4.4436567E-2,-1.61382E-2,-1.2462723E-2,3.5155743E-2,-2.6892316E-2,3.967705E-2,3.2006163E-2,-3.560272E-2,-6.1773863E-2,1.1209694E-3,5.2068263E-2,1.3661156E-2,-3.9367E-2,2.9499998E-2,4.068767E-2,-1.1952675E-2,-5.215479E-4,5.8134444E-2,5.5859648E-2,-1.867639E-2,-2.4337795E-2,3.6716763E-2,1.6739031E-2,-5.3316027E-2,-7.1374904E-3,4.4858243E-2,3.6098838E-2,-3.153226E-2,-5.5313088E-2,1.5222039E-2,-5.529399E-2,-5.731681E-3,-4.7088064E-2,3.1802617E-2,-1.4584083E-2,-7.117251E-2,1.6225452E-2,-3.3191845E-2,-2.7052943E-2,3.0311938E-2,-8.099948E-3,-6.7842625E-2,1.2198829E-2,5.476019E-2,-3.119571E-2,3.903316E-2,4.333076E-2,-1.9834053E-2,1.8944608E-2,6.543996E-2],"categories":[],"categories_nodes":[],"categories_segments":[],"categories_sizes":[],"default_left":[0,0,0,0,0,0,0,0,0,0,0,0,0,0,0,0,0,0,0,0,0,0,0,0,0,0,0,0,0,0,0,0,0,0,0,0,0,0,0,0,0,0,0,0,0,0,0,0,0,0,0,0,0,0,0,0,0,0,0,0,0,0,0,0,0,0,0,0,0,0,0,0,0,0,0,0,0,0,0,0,0,0,0,0,0,0,0,0,0,0,0,0,0,0,0,0,0,0,0,0,0,0,0,0,0,0,0,0,0,0,0,0,0,0,0,0,0,0,0,0,0,0,0,0,0,0,0,0,0,0,0,0,0,0,0,0,0,0,0,0,0,0,0,0,0,0,0,0,0,0,0,0,0,0,0,0,0,0,0,0,0,0,0,0,0,0,0,0,0,0,0,0,0,0,0,0,0,0,0,0,0,0,0,0,0,0,0,0,0,0,0,0,0,0,0,0,0,0,0,0,0,0,0,0,0,0,0,0,0,0,0,0,0,0,0,0,0,0,0,0,0,0,0,0,0,0,0,0,0,0,0,0,0,0,0,0,0,0,0,0,0,0,0,0,0,0,0,0,0,0,0,0,0,0,0,0,0,0,0,0,0,0,0,0,0,0,0,0,0,0,0,0,0,0,0,0,0,0,0,0,0,0,0,0,0,0,0,0,0,0,0,0,0,0,0,0,0,0,0,0,0,0,0,0,0,0,0,0,0,0,0,0,0,0,0,0,0,0,0,0,0,0,0,0,0,0,0],"id":1,"left_children":[1,3,5,7,9,11,13,15,17,19,21,23,25,27,29,31,33,35,-1,37,39,41,43,45,47,49,51,53,55,57,59,61,63,65,67,-1,69,71,73,75,77,79,81,83,85,87,89,91,93,95,97,99,101,103,105,-1,107,109,111,113,115,-1,117,119,-1,-1,-1,121,123,-1,-1,125,127,129,131,-1,-1,133,135,137,139,141,143,-1,145,147,149,151,153,155,157,159,161,163,165,167,-1,169,171,173,175,177,179,181,183,185,187,-1,189,191,193,195,197,199,201,-1,203,-1,-1,-1,-1,205,207,-1,209,-1,-1,211,213,215,217,219,221,223,225,227,229,231,-1,233,235,-1,-1,237,239,241,243,245,247,249,251,253,255,257,259,-1,-1,261,263,-1,-1,-1,265,-1,267,269,-1,271,-1,273,-1,275,-1,277,279,281,-1,283,285,287,289,291,-1,293,-1,295,297,299,301,-1,-1,303,-1,305,307,309,311,313,315,-1,317,319,321,323,325,-1,-1,-1,-1,-1,-1,-1,-1,-1,-1,-1,-1,-1,-1,-1,-1,-1,-1,-1,-1,-1,-1,-1,-1,-1,-1,-1,-1,-1,-1,-1,-1,-1,-1,-1,-1,-1,-1,-1,-1,-1,-1,-1,-1,-1,-1,-1,-1,-1,-1,-1,-1,-1,-1,-1,-1,-1,-1,-1,-1,-1,-1,-1,-1,-1,-1,-1,-1,-1,-1,-1,-1,-1,-1,-1,-1,-1,-1,-1,-1,-1,-1,-1,-1,-1,-1,-1,-1,-1,-1,-1,-1,-1,-1,-1,-1,-1,-1,-1,-1,-1,-1,-1,-1,-1,-1,-1,-1,-1,-1,-1,-1,-1,-1,-1,-1,-1,-1,-1,-1,-1,-1],"loss_changes":[3.6963425E2,2.3071188E2,2.6078223E2,3.9609398E1,1.4075967E2,1.0351074E2,8.425E1,5.3060577E1,4.2866745E0,8.894397E1,1.7560574E2,1.8534776E2,6.911856E1,2.0043564E1,8.772673E1,2.91716E0,2.3090416E1,4.470085E0,0E0,3.3142746E1,3.2070435E1,6.689918E1,2.5911469E1,4.9909714E1,2.995845E1,1.386615E1,1.281982E1,2.5667252E1,2.537712E0,4.167845E1,1.2080811E1,3.7928772E-1,3.0637727E0,6.736553E0,1.4928314E1,0E0,7.0453644E-1,1.0283211E1,3.2560997E1,2.11473E0,2.6962952E1,1.846563E1,5.1238197E1,5.0918274E0,1.4735107E1,3.987831E1,1.9818817E1,2.5347008E1,1.2550186E1,9.108887E0,1.4056992E1,5.021114E0,1.4232695E1,1.0115097E1,1.6146143E1,0E0,1.8201065E0,2.4869267E1,2.152021E1,1.2058983E1,2.2992973E0,0E0,4.679489E-1,4.4208527E-1,0E0,0E0,0E0,2.6739466E1,1.2302879E1,0E0,0E0,3.307992E0,3.3965511E0,4.649082E0,1.2807218E1,0E0,0E0,2.1987488E1,6.7423706E0,3.292263E0,7.487568E0,5.5338E0,3.70803E1,0E0,7.3934937E-1,8.795968E0,7.3879166E0,3.2846985E0,1.2564461E1,1.2508545E0,1.0138397E1,4.7276883E0,1.5191757E1,3.8396587E0,9.91207E0,4.9990845E0,0E0,8.082222E0,6.711998E0,3.491896E0,3.4551213E0,4.897873E0,6.674779E0,7.335376E0,5.483902E0,1.1056088E1,1.12864E1,0E0,6.2080383E-2,4.9236183E0,1.0228945E1,4.62838E0,8.845317E0,2.2183285E1,4.663419E0,0E0,1.6371384E0,0E0,0E0,0E0,0E0,5.6914062E0,1.2413437E1,0E0,4.143577E0,0E0,0E0,4.4686785E0,2.3830605E0,1.5274866E0,3.5708504E0,8.92864E0,7.1482825E0,6.27919E0,1.0414515E1,8.644064E0,5.0961304E0,8.164755E0,0E0,4.27849E0,5.1380615E0,0E0,0E0,1.2800316E1,1.486043E1,2.392942E0,1.3208008E-1,2.8881083E0,5.8088126E0,7.6029367E0,4.4713135E0,3.3830032E0,3.9653492E0,6.488471E0,1.304104E1,0E0,0E0,8.575399E-1,6.7476006E0,0E0,0E0,0E0,7.1360703E0,0E0,1.1151373E0,5.591463E0,0E0,4.424408E0,0E0,5.7496796E0,0E0,3.3198624E0,0E0,4.3768244E0,3.152978E0,3.0898628E0,0E0,3.958791E0,3.731224E0,6.614008E-1,7.9490976E0,6.171458E0,0E0,2.2938843E0,0E0,7.080085E0,1.0302029E1,8.471316E0,6.701235E0,0E0,0E0,4.8121023E0,0E0,8.049189E0,2.5837107E0,8.128187E0,1.8819275E0,6.716402E0,3.4312677E0,0E0,1.8908405E0,2.8590145E0,4.054256E0,2.633904E0,9.1407776E-2,0E0,0E0,0E0,0E0,0E0,0E0,0E0,0E0,0E0,0E0,0E0,0E0,0E0,0E0,0E0,0E0,0E0,0E0,0E0,0E0,0E0,0E0,0E0,0E0,0E0,0E0,0E0,0E0,0E0,0E0,0E0,0E0,0E0,0E0,0E0,0E0,0E0,0E0,0E0,0E0,0E0,0E0,0E0,0E0,0E0,0E0,0E0,0E0,0E0,0E0,0E0,0E0,0E0,0E0,0E0,0E0,0E0,0E0,0E0,0E0,0E0,0E0,0E0,0E0,0E0,0E0,0E0,0E0,0E0,0E0,0E0,0E0,0E0,0E0,0E0,0E0,0E0,0E0,0E0,0E0,0E0,0E0,0E0,0E0,0E0,0E0,0E0,0E0,0E0,0E0,0E0,0E0,0E0,0E0,0E0,0E0,0E0,0E0,0E0,0E0,0E0,0E0,0E0,0E0,0E0,0E0,0E0,0E0,0E0,0E0,0E0,0E0,0E0,0E0,0E0,0E0,0E0,0E0,0E0,0E0,0E0,0E0],"parents":[2147483647,0,0,1,1,2,2,3,3,4,4,5,5,6,6,7,7,8,8,9,9,10,10,11,11,12,12,13,13,14,14,15,15,16,16,17,17,19,19,20,20,21,21,22,22,23,23,24,24,25,25,26,26,27,27,28,28,29,29,30,30,31,31,32,32,33,33,34,34,36,36,37,37,38,38,39,39,40,40,41,41,42,42,43,43,44,44,45,45,46,46,47,47,48,48,49,49,50,50,51,51,52,52,53,53,54,54,56,56,57,57,58,58,59,59,60,60,62,62,63,63,67,67,68,68,71,71,72,72,73,73,74,74,77,77,78,78,79,79,80,80,81,81,82,82,84,84,85,85,86,86,87,87,88,88,89,89,90,90,91,91,92,92,93,93,94,94,95,95,97,97,98,98,99,99,100,100,101,101,102,102,103,103,104,104,105,105,106,106,108,108,109,109,110,110,111,111,112,112,113,113,114,114,116,116,121,121,122,122,124,124,127,127,128,128,129,129,130,130,131,131,132,132,133,133,134,134,135,135,136,136,137,137,139,139,140,140,143,143,144,144,145,145,146,146,147,147,148,148,149,149,150,150,151,151,152,152,153,153,154,154,157,157,158,158,162,162,164,164,165,165,167,167,169,169,171,171,173,173,174,174,175,175,177,177,178,178,179,179,180,180,181,181,183,183,185,185,186,186,187,187,188,188,191,191,193,193,194,194,195,195,196,196,197,197,198,198,200,200,201,201,202,202,203,203,204,204],"right_children":[2,4,6,8,10,12,14,16,18,20,22,24,26,28,30,32,34,36,-1,38,40,42,44,46,48,50,52,54,56,58,60,62,64,66,68,-1,70,72,74,76,78,80,82,84,86,88,90,92,94,96,98,100,102,104,106,-1,108,110,112,114,116,-1,118,120,-1,-1,-1,122,124,-1,-1,126,128,130,132,-1,-1,134,136,138,140,142,144,-1,146,148,150,152,154,156,158,160,162,164,166,168,-1,170,172,174,176,178,180,182,184,186,188,-1,190,192,194,196,198,200,202,-1,204,-1,-1,-1,-1,206,208,-1,210,-1,-1,212,214,216,218,220,222,224,226,228,230,232,-1,234,236,-1,-1,238,240,242,244,246,248,250,252,254,256,258,260,-1,-1,262,264,-1,-1,-1,266,-1,268,270,-1,272,-1,274,-1,276,-1,278,280,282,-1,284,286,288,290,292,-1,294,-1,296,298,300,302,-1,-1,304,-1,306,308,310,312,314,316,-1,318,320,322,324,326,-1,-1,-1,-1,-1,-1,-1,-1,-1,-1,-1,-1,-1,-1,-1,-1,-1,-1,-1,-1,-1,-1,-1,-1,-1,-1,-1,-1,-1,-1,-1,-1,-1,-1,-1,-1,-1,-1,-1,-1,-1,-1,-1,-1,-1,-1,-1,-1,-1,-1,-1,-1,-1,-1,-1,-1,-1,-1,-1,-1,-1,-1,-1,-1,-1,-1,-1,-1,-1,-1,-1,-1,-1,-1,-1,-1,-1,-1,-1,-1,-1,-1,-1,-1,-1,-1,-1,-1,-1,-1,-1,-1,-1,-1,-1,-1,-1,-1,-1,-1,-1,-1,-1,-1,-1,-1,-1,-1,-1,-1,-1,-1,-1,-1,-1,-1,-1,-1,-1,-1,-1,-1],"split_conditions":[1.0267857E0,-2.01E2,7.9E1,-9.35E1,-4.3333335E0,7.3333335E0,9.549107E1,-4.54E2,6.129749E1,3.390711E0,9.442595E1,-6.0940033E1,9.668069E1,2.61E2,3.32E2,-4.92E2,-2.728482E2,2.7E2,8.8762236E-4,-1.9633333E2,8.1785E0,-1.40125E2,-7.288393E1,5.7223213E1,1.0784821E2,6.885245E1,4.525E1,5.5333332E1,-5.3225807E1,8.86666E1,6.9E2,5.83E2,6.08E2,5.9951298E1,-3.8E1,1.6600336E-4,4.2333053E-13,-2.3923215E2,-7.886607E1,1.8E2,3.1206718E1,-6.3286713E1,9.200202E0,9.8E1,9.631581E1,-9.6E1,4.2689996E0,8.285387E0,-4.913295E1,-3.49162E0,6.205357E1,5.982989E0,8.447619E1,3.683903E1,9.705929E1,-4.8301017E-4,3.01E2,5.503371E1,7.7321884E1,9.681194E1,3.4530624E1,-1.8653797E-2,4.6001125E1,-2.728482E2,8.393857E-3,6.336285E-2,-1.6220937E-2,-1.04166664E2,2.8500826E1,-2.4891837E-2,-6.927122E-2,-2.9533334E2,2.56E2,-1.6383333E2,-1E2,5.7930604E-4,-6.1389428E-2,-3.8535713E1,4.483342E0,1.20166664E2,6.1739883E1,1.4305545E1,6.224164E1,-9.468526E-3,5.4679E4,-5.186607E1,2.14E2,-1.47E2,-9.0456985E1,4.4513E4,4.4513E4,1.7946531E1,-7.6E1,-1.2E1,2.4084E5,8.41E2,1.7186405E-2,2.5666666E2,6.339739E1,1.93E2,8.082717E1,7.0623314E1,8.084859E1,-4.0666668E1,7.1E1,2.4714285E1,1.13E2,8.717098E-3,3.2914265E1,5.0141422E1,1.9197322E2,1.2841965E2,6.247604E1,5.3166668E1,2.5033035E2,-6.706525E-5,4.36E2,-1.8653797E-2,-7.499193E-2,-1.52835045E-2,-5.6749795E-2,2.6753178E0,5.2888905E1,-7.11895E-2,3.5428528E1,-1.9493261E-2,4.9630657E-2,-8E1,-1.85E2,-8.345865E1,2.4186199E0,-9.35E1,-2.74375E1,-2.16E2,-3.8E1,-1.6982143E1,-1.42E2,5.1164852E1,-4.650872E-2,4.9325016E1,4.9757E4,-1.9621387E-2,6.0859058E-2,6.479107E1,-3.2732143E1,9.7334816E1,6.4491684E1,6.3833332E1,1.9866667E2,8.715066E1,1.1E2,3.7961525E1,3.02E2,3.390711E0,2.54204E5,-2.4900284E-2,-7.516148E-2,2.4651218E1,-6.5789474E1,2.0173667E-2,-5.652948E-2,-4.3878943E-2,3.8717854E1,-5.960322E-2,-5.5078125E1,1.4537134E1,5.895737E-2,9.5096245E1,9.7106403E-4,8.151163E1,3.5589214E-2,5.5982376E1,1.992737E-2,9.692446E1,9.7334816E1,6.1989883E1,-5.4719377E-2,4.14699E0,7.1E1,4.2488235E1,3.72E2,1.995E5,-4.8100132E-2,-6.470588E1,-2.0314708E-2,1.56E2,1.175E2,7.640767E1,7.6333336E1,6.488281E-2,1.909701E-2,1.9752678E2,6.597569E-2,1.133154E1,-2.4666666E1,3.07494E5,1.83E2,5.8963126E-1,-1.9290466E1,5.110627E-2,-1.9047619E1,4.9003414E1,1.6033333E2,9.8333336E1,3.731421E-1,-4.848991E-2,-1.014808E-2,4.775256E-2,-5.7019694E-3,4.767333E-2,-2.6158331E-2,-3.666025E-2,3.969808E-2,-6.773313E-3,-5.8953624E-2,-2.7170734E-2,1.9917158E-2,2.8653037E-2,5.7332642E-2,7.142931E-3,-4.0835522E-2,2.7923778E-2,-7.7995774E-3,1.8440332E-2,5.114694E-2,-8.742958E-3,2.9826058E-2,4.9197715E-2,-1.3500942E-2,5.014084E-3,6.5587595E-2,-4.6174124E-2,3.1301107E-2,4.573922E-2,-5.955511E-4,-8.926094E-3,6.600888E-2,-5.5285443E-2,-1.7811194E-2,5.608482E-4,-3.0136574E-2,-9.55211E-3,4.884576E-2,3.5582088E-2,6.631658E-2,6.0593482E-2,5.682191E-3,-8.561403E-3,4.3906502E-2,3.8978394E-2,-2.312353E-3,2.6580362E-2,6.197593E-2,1.1015508E-3,-7.063363E-2,-4.4825595E-2,7.380198E-3,-5.777807E-2,1.0183636E-3,8.088651E-3,-4.2834036E-2,5.6913355E-4,4.393795E-2,-4.894042E-2,-1.07029285E-2,3.0170152E-2,5.693192E-2,2.0570189E-2,-2.0572728E-2,-4.417571E-2,8.785087E-3,-7.2191946E-2,-4.5317356E-2,-4.0591795E-2,-4.7118985E-3,-3.877919E-2,-7.150444E-2,4.4436567E-2,-1.61382E-2,-1.2462723E-2,3.5155743E-2,-2.6892316E-2,3.967705E-2,3.2006163E-2,-3.560272E-2,-6.1773863E-2,1.1209694E-3,5.2068263E-2,1.3661156E-2,-3.9367E-2,2.9499998E-2,4.068767E-2,-1.1952675E-2,-5.215479E-4,5.8134444E-2,5.5859648E-2,-1.867639E-2,-2.4337795E-2,3.6716763E-2,1.6739031E-2,-5.3316027E-2,-7.1374904E-3,4.4858243E-2,3.6098838E-2,-3.153226E-2,-5.5313088E-2,1.5222039E-2,-5.529399E-2,-5.731681E-3,-4.7088064E-2,3.1802617E-2,-1.4584083E-2,-7.117251E-2,1.6225452E-2,-3.3191845E-2,-2.7052943E-2,3.0311938E-2,-8.099948E-3,-6.7842625E-2,1.2198829E-2,5.476019E-2,-3.119571E-2,3.903316E-2,4.333076E-2,-1.9834053E-2,1.8944608E-2,6.543996E-2],"split_indices":[12,3,3,12,1,1,12,3,9,10,10,8,10,3,3,3,12,0,0,2,7,12,12,12,12,9,12,2,8,10,0,0,0,7,1,0,4,12,12,0,9,8,6,0,10,3,10,7,8,8,12,7,9,9,10,0,0,5,9,10,9,0,5,12,0,0,0,1,6,0,0,2,0,1,2,0,0,12,10,1,10,7,10,0,11,12,0,3,8,11,11,6,3,2,11,0,0,2,6,0,4,4,5,1,1,12,3,0,7,9,12,12,6,1,12,0,3,0,0,0,0,6,7,0,6,0,0,3,3,8,6,1,12,2,3,12,3,9,0,10,11,0,0,9,12,10,9,1,2,4,2,5,0,10,11,0,0,7,8,0,0,0,10,0,8,4,0,10,0,9,0,5,0,10,10,4,0,7,3,6,0,11,0,8,0,3,1,5,2,0,0,12,0,4,2,11,0,7,8,0,8,6,1,1,7,0,0,0,0,0,0,0,0,0,0,0,0,0,0,0,0,0,0,0,0,0,0,0,0,0,0,0,0,0,0,0,0,0,0,0,0,0,0,0,0,0,0,0,0,0,0,0,0,0,0,0,0,0,0,0,0,0,0,0,0,0,0,0,0,0,0,0,0,0,0,0,0,0,0,0,0,0,0,0,0,0,0,0,0,0,0,0,0,0,0,0,0,0,0,0,0,0,0,0,0,0,0,0,0,0,0,0,0,0,0,0,0,0,0,0,0,0,0,0,0,0,0],"split_type":[0,0,0,0,0,0,0,0,0,0,0,0,0,0,0,0,0,0,0,0,0,0,0,0,0,0,0,0,0,0,0,0,0,0,0,0,0,0,0,0,0,0,0,0,0,0,0,0,0,0,0,0,0,0,0,0,0,0,0,0,0,0,0,0,0,0,0,0,0,0,0,0,0,0,0,0,0,0,0,0,0,0,0,0,0,0,0,0,0,0,0,0,0,0,0,0,0,0,0,0,0,0,0,0,0,0,0,0,0,0,0,0,0,0,0,0,0,0,0,0,0,0,0,0,0,0,0,0,0,0,0,0,0,0,0,0,0,0,0,0,0,0,0,0,0,0,0,0,0,0,0,0,0,0,0,0,0,0,0,0,0,0,0,0,0,0,0,0,0,0,0,0,0,0,0,0,0,0,0,0,0,0,0,0,0,0,0,0,0,0,0,0,0,0,0,0,0,0,0,0,0,0,0,0,0,0,0,0,0,0,0,0,0,0,0,0,0,0,0,0,0,0,0,0,0,0,0,0,0,0,0,0,0,0,0,0,0,0,0,0,0,0,0,0,0,0,0,0,0,0,0,0,0,0,0,0,0,0,0,0,0,0,0,0,0,0,0,0,0,0,0,0,0,0,0,0,0,0,0,0,0,0,0,0,0,0,0,0,0,0,0,0,0,0,0,0,0,0,0,0,0,0,0,0,0,0,0,0,0,0,0,0,0,0,0,0,0,0,0,0,0,0,0,0,0,0,0],"sum_hessian":[1.9751989E3,9.9068835E2,9.845105E2,1.3991231E2,8.5077606E2,6.319043E2,3.5260617E2,9.9301636E1,4.061068E1,4.5849768E2,3.9227838E2,3.3302747E2,2.9887686E2,1.6950677E2,1.830994E2,2.5945824E1,7.335581E1,3.9037437E1,1.573241E0,1.2252256E2,3.359751E2,2.3944638E2,1.52832E2,2.2694994E2,1.06077515E2,2.3802333E2,6.0853523E1,1.4072464E2,2.8782131E1,1.330831E2,5.00163E1,2.0049677E1,5.8961453E0,1.0834539E1,6.252127E1,1.5717006E0,3.7465736E1,2.0248507E1,1.02274055E2,4.2967596E0,3.3167834E2,4.030705E1,1.9913933E2,5.5960808E1,9.687119E1,1.18570274E2,1.0837966E2,8.111698E1,2.4960533E1,1.3968503E2,9.8338295E1,2.7117456E1,3.373607E1,5.6461277E1,8.426336E1,1.0461034E0,2.7736027E1,4.0502438E1,9.258066E1,2.8312256E1,2.1704044E1,1.0249835E0,1.9024694E1,4.0480103E0,1.8481351E0,9.289326E0,1.5452133E0,5.1600933E1,1.0920337E1,2.049879E0,3.5415855E1,2.9438732E0,1.7304634E1,4.2532547E1,5.974151E1,1.0483527E0,3.2484066E0,1.5618542E2,1.7549294E2,9.330675E0,3.0976374E1,1.1918983E1,1.8722034E2,1.2954385E0,5.4665367E1,3.6558006E1,6.0313183E1,3.4462902E1,8.4107376E1,5.3873306E1,5.4506355E1,5.346855E0,7.577013E1,8.890221E0,1.6070312E1,1.3808627E2,1.5987631E0,5.242761E1,4.5910686E1,2.2750017E1,4.367439E0,2.0085094E1,1.3650974E1,1.640188E1,4.00594E1,4.328681E1,4.097655E1,1.3210739E0,2.6414953E1,1.404015E1,2.6462288E1,4.6012367E1,4.656829E1,1.0103795E1,1.820846E1,1.0472674E0,2.0656776E1,1.0249835E0,1.799971E1,1.5481834E0,2.499827E0,2.4449356E1,2.7151577E1,7.99766E0,2.922677E0,1.0235053E0,1.920368E0,2.8695593E0,1.4435075E1,2.3432887E0,4.018926E1,2.3520535E1,3.6220974E1,1.1235332E2,4.38321E1,1.8736359E1,1.5675658E2,6.810527E0,2.5201483E0,1.1657539E1,1.9318834E1,1.0238645E0,1.089512E1,8.6835815E1,1.0038453E2,3.2122147E0,5.145315E1,6.750528E0,2.980748E1,2.787847E1,3.2434715E1,1.8595608E1,1.5867296E1,1.2516023E1,7.159135E1,2.04974E0,5.1823566E1,2.4201615E0,5.2086193E1,1.0731561E0,4.273699E0,2.270005E0,7.350012E1,6.7945347E0,2.0956855E0,1.2503288E1,3.5670235E0,1.3651297E2,1.5732948E0,5.0532776E1,1.894835E0,4.483861E1,1.072077E0,8.887333E0,1.3862684E1,2.3709667E0,1.9964724E0,3.3958364E0,1.6689259E1,4.315785E0,9.335189E0,1.4902296E1,1.499584E0,3.9036697E1,1.0227025E0,7.4988832E0,3.578793E1,9.623193E0,3.1353357E1,2.5345242E1,1.0697114E0,5.557574E0,8.482575E0,1.679749E1,9.6648E0,1.6369862E1,2.9642504E1,3.9408558E1,7.15973E0,3.8121712E0,6.2916236E0,1.481767E1,3.3907907E0,2.394325E0,1.8262451E1,1.0917679E1,1.3531677E1,1.6463043E1,1.0688534E1,1.6483915E0,1.2742856E0,1.7719508E0,1.0976083E0,1.8220598E0,1.2613015E1,1.271567E0,1.0717218E0,1.359363E1,2.6595627E1,9.739496E0,1.3781038E1,2.318783E1,1.3033142E1,1.1651693E1,1.0070163E2,1.7435669E1,2.6396431E1,1.4852168E1,3.8841908E0,2.3636842E0,1.5439288E2,2.520489E0,4.290038E0,4.333686E0,7.3238535E0,1.2964722E0,1.8022362E1,6.740393E1,1.9431877E1,6.0003204E1,4.038133E1,1.2951698E0,1.9170449E0,4.030398E0,4.7422756E1,4.383166E0,2.367362E0,2.7092358E1,2.7151208E0,1.6641558E1,1.1236912E1,1.0391565E1,2.204315E1,1.0489154E0,1.7546692E1,1.3494348E1,2.372949E0,8.320878E0,4.1951447E0,6.370086E1,7.890491E0,1.0481222E0,1.3720393E0,4.272203E1,9.364161E0,3.0935858E1,4.2564262E1,1.0735686E0,1.0221169E0,3.5463467E0,8.956942E0,1.1894292E2,1.7570057E1,4.1915012E1,8.617762E0,1.0473591E1,3.436502E1,1.3736857E0,7.513647E0,2.0723827E0,1.1790301E1,1.272829E0,1.0981376E0,1.6215327E0,1.7743037E0,1.5115667E1,1.573592E0,2.195096E0,2.1206892E0,6.1178713E0,3.2173173E0,1.0491145E1,4.4111505E0,1.0461555E0,3.799054E1,5.1801515E0,2.318732E0,3.174913E1,4.0387983E0,6.3572197E0,3.2659729E0,4.169292E0,2.7184065E1,4.0340815E0,1.5234922E0,1.9944795E0,1.480301E1,7.3195186E0,2.345281E0,1.4748087E1,1.6217749E0,1.5495715E0,2.8092934E1,4.241841E0,3.5166718E1,1.272187E0,5.887543E0,1.2981304E0,4.993493E0,3.96195E0,1.085572E1,2.2944348E0,1.0963559E0,1.3709178E0,1.0234072E0,1.069377E0,1.7193075E1],"tree_param":{"num_deleted":"0","num_feature":"13","num_nodes":"327","size_leaf_vector":"1"}},{"base_weights":[-6.658245E-3,4.262703E-1,-4.0378726E-1,-4.0520146E-1,6.944611E-1,-7.822918E-1,1.6121095E-1,-1.5165575E0,-1.9702795E-1,2.6780823E-1,1.0466193E0,-4.5196402E-1,-1.2190052E0,8.4834695E-1,-1.3013537E-1,-1.7615325E0,-1.0190398E0,3.4996396E-1,-9.412993E-1,-3.082692E-1,1.1604275E0,3.2865283E-1,1.3056363E0,4.7268096E-2,-9.8384494E-1,-1.794997E0,-1.0434881E0,1.9004595E-1,1.2375817E0,-4.1872218E-1,7.9647326E-1,-1.8037476E-2,-7.103215E-2,3.2095024E-1,-1.3519733E0,5.7361484E-1,-6.058436E-1,-1.5584519E0,-5.553277E-1,7.274553E-1,-6.5884566E-1,8.558873E-1,1.5396947E0,4.9589685E-1,-1.0728216E0,1.3604203E0,-7.134395E-1,-6.433263E-1,9.5113057E-1,-1.1556739E0,3.9272487E-2,-9.3219197E-1,-1.8411044E0,-3.9891002E-1,-1.4541911E0,4.6261388E-1,-1.1139417E0,-2.1262415E-2,1.2873254E0,5.915557E-2,-9.8147625E-1,-1.5271546E-1,1.1800933E0,4.036478E-2,-1.5142805E-2,-6.251182E-1,-6.717023E-2,-1.7333654E-1,8.885475E-1,-1.5530553E0,4.1590345E-1,2.4058302E-4,-1.612975E0,7.873052E-2,-1.274654E0,-8.139785E-2,1.142803E0,-7.7722496E-1,5.746854E-1,9.555154E-1,-6.4622325E-1,6.158624E-1,1.6423137E0,1.1952274E0,-1.0735498E-2,2.568757E-2,-1.3670294E0,1.0539086E0,1.5758651E0,-1.3302997E0,3.4590147E-2,-1.558776E0,-3.677749E-1,9.756541E-2,1.1661714E0,1.1787279E0,-1.2403129E0,8.987516E-1,-1.5223807E-1,-4.0572537E-3,-5.3851683E-2,-2.3613395E-2,-7.328448E-2,-8.971077E-1,6.709902E-1,-1.6109703E0,-8.171721E-2,-6.0383236E-1,6.315027E-1,-1.4273041E0,2.0744648E-2,1.3625306E0,7.898785E-2,-3.9140663E-1,6.3659376E-1,-1.2775407E0,-3.7322605E-1,8.745042E-1,-1.0238421E0,6.36225E-2,8.751396E-1,2.6590308E-2,-4.8396096E-2,-8.8055915E-1,4.9940246E-1,1.3928802E0,6.628959E-1,4.4234795E-4,-1.7098489E0,5.5442918E-2,-1.6245036E-1,-2.3714859E-2,-1.6652553E0,-9.798218E-1,4.7292995E-1,1.2189221E-1,-1.684884E0,-5.955833E-1,7.804206E-1,-1.8814463E-2,1.2644587E0,-9.5774627E-1,-1.13651745E-1,1.2844195E0,-6.265961E-2,1.1953571E0,2.7804455E-1,1.5012146E-2,-4.809436E-2,1.1003472E0,-3.8463783E-1,1.6592451E0,1.787161E-2,-1.6317954E-2,1.3195628E0,6.705002E-1,-1.8267696E-1,-1.4484997E-2,-1.5051879E0,1.1996624E0,3.5875598E-1,1.6096799E0,4.8984566E-1,-6.26046E-2,-7.5372476E-3,-7.2122715E-2,-9.313013E-1,-1.0970554E0,-1.4033948E-1,3.3796197E-1,-5.017322E-2,5.9474415E-1,1.3729242E0,-2.286222E-4,5.72517E-2,-1.509889E0,-5.9384483E-1,1.301866E-3,5.184126E-2,-8.937287E-1,1.6464943E-1,-3.7871742E-1,-1.2605661E0,1.3627248E0,2.523411E-1,2.7908477E-1,-1.6593438E0,-6.5733325E-1,9.634253E-1,3.9137866E-2,-1.1757721E0,-4.5629766E-2,7.3351395E-1,-6.5836504E-2,4.2731166E-4,-2.026661E-2,1.3974648E0,4.6412013E-2,-7.031532E-1,2.843252E-1,-6.5111697E-1,-3.1948587E-1,1.003802E0,-1.7107697E0,-9.485401E-1,-5.6242955E-1,7.8649515E-1,-3.342424E-1,4.841849E-2,3.8615473E-2,-1.3226867E0,-1.14433385E-1,1.2422994E0,2.8763387E-2,-5.0320797E-2,-2.3696257E-2,3.4097407E-2,6.12103E-2,1.4704358E-2,3.0316181E-2,-1.1388204E-2,-7.059005E-2,-1.9125838E-2,-4.7482464E-2,1.0279317E-2,-6.671514E-2,-1.8874425E-2,-5.609974E-2,3.856035E-2,4.2767424E-2,-1.4908029E-3,2.2165548E-2,-3.1436324E-2,-7.030284E-2,-7.48024E-3,2.6726622E-2,-3.735178E-2,4.1254494E-2,-9.408109E-3,3.0809276E-2,-3.321138E-2,2.7582213E-2,6.1058875E-2,3.1110499E-2,-4.153694E-2,6.3170684E-3,-3.1661816E-2,6.0489047E-2,-3.439789E-5,-4.054927E-2,2.8736193E-2,-1.8953262E-2,5.071628E-2,-2.2197086E-2,2.8475324E-2,2.0641602E-4,5.4628734E-2,-2.2002153E-2,-9.95405E-4,6.609465E-2,1.8140974E-2,-2.37078E-2,3.8901463E-2,6.496162E-2,3.992334E-2,-4.5886408E-3,4.3283746E-2,-2.3692137E-2,8.741174E-3,-6.7022756E-2,-1.4947131E-2,5.0292697E-2,1.1971452E-2,-2.1284167E-2,2.6361175E-2,6.731888E-2,5.238724E-2,4.927553E-2,-3.670066E-2,-4.097654E-3,-4.425527E-2,1.7844096E-2,-4.985134E-2,3.0612275E-2,-1.3513357E-2,-3.0811753E-2,2.3515048E-2,9.270764E-3,4.3180957E-2,5.6191534E-2,-1.8162742E-2,-6.539108E-2,-3.4644514E-2,-4.576792E-3,-4.0513515E-2,1.7200314E-2,-5.534656E-2,1.7697964E-2,-2.5106743E-2,-2.9381773E-2,1.7397195E-2,-5.7725016E-2,6.283724E-3,8.122355E-3,5.9931763E-2,2.2274707E-2,-4.556753E-2,3.853168E-2,-1.5978532E-2,-6.677475E-2,1.6093805E-2,1.4578875E-2,-3.954844E-2,-4.5084158E-5,5.3972773E-2,-1.5770659E-2,-5.6056622E-2,3.5213396E-2,3.9409976E-3,3.944798E-2,6.395048E-2,-5.3046644E-2,1.9262213E-2,-2.5584975E-2,2.8838266E-2,-3.06165E-2,4.389065E-2,2.9277511E-2,-2.5885504E-2,7.654323E-3,4.8166305E-2,-7.104312E-2,-3.336075E-2,-7.5952266E-3,-5.3626303E-2,-3.510895E-2,3.0758101E-3,5.3478207E-2,-7.6414947E-3,4.0263546E-4,-2.0402266E-2,-6.1356E-2,7.4032145E-3,-5.190527E-2,1.3216468E-2,2.8286526E-2,6.323818E-2],"categories":[],"categories_nodes":[],"categories_segments":[],"categories_sizes":[],"default_left":[0,0,0,0,0,0,0,0,0,0,0,0,0,0,0,0,0,0,0,0,0,0,0,0,0,0,0,0,0,0,0,0,0,0,0,0,0,0,0,0,0,0,0,0,0,0,0,0,0,0,0,0,0,0,0,0,0,0,0,0,0,0,0,0,0,0,0,0,0,0,0,0,0,0,0,0,0,0,0,0,0,0,0,0,0,0,0,0,0,0,0,0,0,0,0,0,0,0,0,0,0,0,0,0,0,0,0,0,0,0,0,0,0,0,0,0,0,0,0,0,0,0,0,0,0,0,0,0,0,0,0,0,0,0,0,0,0,0,0,0,0,0,0,0,0,0,0,0,0,0,0,0,0,0,0,0,0,0,0,0,0,0,0,0,0,0,0,0,0,0,0,0,0,0,0,0,0,0,0,0,0,0,0,0,0,0,0,0,0,0,0,0,0,0,0,0,0,0,0,0,0,0,0,0,0,0,0,0,0,0,0,0,0,0,0,0,0,0,0,0,0,0,0,0,0,0,0,0,0,0,0,0,0,0,0,0,0,0,0,0,0,0,0,0,0,0,0,0,0,0,0,0,0,0,0,0,0,0,0,0,0,0,0,0,0,0,0,0,0,0,0,0,0,0,0,0,0,0,0,0,0,0,0,0,0,0,0,0,0,0,0,0,0,0,0,0,0,0,0,0,0,0,0,0,0,0,0,0,0,0,0,0,0,0,0,0,0,0,0,0,0,0,0,0,0,0,0,0,0,0,0,0,0,0,0,0,0,0,0,0,0,0,0,0,0,0,0],"id":2,"left_children":[1,3,5,7,9,11,13,15,17,19,21,23,25,27,29,31,33,35,37,39,41,43,45,47,49,51,53,55,57,59,61,-1,-1,63,65,67,69,71,73,75,77,79,81,83,85,87,89,91,93,95,97,99,101,103,105,107,109,-1,111,113,115,117,119,-1,-1,121,-1,123,125,127,129,-1,131,133,135,137,139,141,143,145,147,149,151,153,155,-1,157,159,161,163,-1,165,167,169,171,173,175,177,179,-1,-1,-1,-1,181,183,185,187,189,191,193,-1,195,197,199,201,203,205,207,209,-1,211,-1,-1,213,215,217,219,-1,221,-1,223,-1,225,227,229,231,233,235,237,239,241,243,245,247,249,251,253,-1,-1,255,257,259,-1,261,263,265,267,-1,269,271,273,275,277,-1,-1,-1,279,281,283,285,-1,287,289,-1,-1,291,293,-1,-1,295,297,299,301,303,305,307,309,311,313,-1,315,-1,317,-1,-1,-1,319,-1,321,323,325,327,329,331,333,335,337,339,-1,-1,341,343,345,-1,-1,-1,-1,-1,-1,-1,-1,-1,-1,-1,-1,-1,-1,-1,-1,-1,-1,-1,-1,-1,-1,-1,-1,-1,-1,-1,-1,-1,-1,-1,-1,-1,-1,-1,-1,-1,-1,-1,-1,-1,-1,-1,-1,-1,-1,-1,-1,-1,-1,-1,-1,-1,-1,-1,-1,-1,-1,-1,-1,-1,-1,-1,-1,-1,-1,-1,-1,-1,-1,-1,-1,-1,-1,-1,-1,-1,-1,-1,-1,-1,-1,-1,-1,-1,-1,-1,-1,-1,-1,-1,-1,-1,-1,-1,-1,-1,-1,-1,-1,-1,-1,-1,-1,-1,-1,-1,-1,-1,-1,-1,-1,-1,-1,-1,-1,-1,-1,-1,-1,-1,-1,-1,-1,-1,-1,-1,-1,-1,-1,-1,-1,-1,-1],"loss_changes":[3.3710342E2,2.0946786E2,2.1882062E2,5.2777706E1,1.06346924E2,8.781528E1,8.240601E1,2.5979614E0,7.946024E1,1.6605814E2,7.1805756E1,9.307458E1,2.473642E1,3.1161835E1,7.775996E1,3.75206E-1,6.7978E0,2.4452545E1,1.8812256E1,7.1877304E1,1.33051605E1,2.4982658E1,3.2507904E1,1.1401308E2,2.9873947E1,6.73996E-1,5.3457657E1,1.711766E1,7.484825E0,5.9609123E1,2.534375E1,0E0,0E0,2.2011132E0,1.9070873E0,2.1771187E1,2.181063E1,2.6740494E0,2.398927E1,1.6958433E1,2.197549E1,1.1462952E1,4.215271E0,3.3274624E1,6.693619E0,1.6692444E1,9.202469E0,2.5555984E1,1.4403374E1,3.0171967E1,4.3119473E0,1.6849818E0,1.3546753E-1,4.3681114E1,2.6615356E1,7.4672327E0,5.052676E0,0E0,6.710129E0,3.1650131E1,1.7845695E1,1.9486666E1,5.1143417E0,0E0,0E0,5.033473E0,0E0,1.3804648E1,6.451542E0,2.8543625E0,6.707409E0,0E0,5.9417725E-1,1.2472871E1,1.4296974E1,8.426097E0,4.7205353E0,1.6056465E1,6.1802673E0,1.0776283E1,3.4727585E0,3.8705354E0,2.3457336E-1,5.963928E0,6.6152864E0,0E0,8.408203E-1,1.1498871E1,5.1309814E0,1.5459061E0,0E0,2.3159637E0,1.3268937E1,6.032716E0,6.636383E0,1.8223858E0,2.3625214E1,1.6747437E0,5.2221227E0,0E0,0E0,0E0,0E0,9.99295E0,7.257824E0,1.06579895E1,8.933593E0,6.5459385E0,7.136591E0,2.5659494E0,0E0,5.344818E0,5.516245E0,1.2191385E1,1.9026028E1,8.072685E0,8.061467E0,4.7179394E0,8.302379E0,0E0,1.1461086E1,0E0,0E0,9.893546E0,6.5685773E0,2.5391426E0,4.938595E0,0E0,1.7222214E-1,0E0,3.858412E0,0E0,9.610748E-2,8.453121E0,6.806678E0,3.0871274E0,2.4724846E0,5.9402776E0,2.1877713E0,3.3852017E0,3.751831E0,1.8591385E1,5.7937365E0,2.0667505E0,6.9119663E0,8.290504E0,7.5741544E0,0E0,0E0,1.5715952E0,1.7679346E-1,2.3031616E-1,0E0,3.3282833E0,1.9364738E0,3.9578843E0,7.754347E0,0E0,1.2317543E0,6.223892E0,6.4431787E0,2.0211792E0,7.973406E0,0E0,0E0,0E0,1.3348379E0,5.5299454E0,1.1930894E1,4.883438E0,0E0,3.0771976E0,5.044731E0,0E0,0E0,7.813751E0,8.805811E0,0E0,0E0,5.1072707E0,3.9266808E0,7.644853E0,9.561996E0,1.4495087E0,8.395249E0,2.1354265E0,8.4747925E0,3.7434921E0,2.0779924E0,0E0,3.4691238E-1,0E0,3.2717743E0,0E0,0E0,0E0,4.5799255E0,0E0,3.5778413E0,8.694023E0,1.1880606E1,6.0543876E0,6.6016884E0,6.9712067E-1,1.2471764E1,6.467144E0,3.2181537E0,1.9893312E-1,0E0,0E0,4.0385933E0,5.49477E0,3.180027E0,0E0,0E0,0E0,0E0,0E0,0E0,0E0,0E0,0E0,0E0,0E0,0E0,0E0,0E0,0E0,0E0,0E0,0E0,0E0,0E0,0E0,0E0,0E0,0E0,0E0,0E0,0E0,0E0,0E0,0E0,0E0,0E0,0E0,0E0,0E0,0E0,0E0,0E0,0E0,0E0,0E0,0E0,0E0,0E0,0E0,0E0,0E0,0E0,0E0,0E0,0E0,0E0,0E0,0E0,0E0,0E0,0E0,0E0,0E0,0E0,0E0,0E0,0E0,0E0,0E0,0E0,0E0,0E0,0E0,0E0,0E0,0E0,0E0,0E0,0E0,0E0,0E0,0E0,0E0,0E0,0E0,0E0,0E0,0E0,0E0,0E0,0E0,0E0,0E0,0E0,0E0,0E0,0E0,0E0,0E0,0E0,0E0,0E0,0E0,0E0,0E0,0E0,0E0,0E0,0E0,0E0,0E0,0E0,0E0,0E0,0E0,0E0,0E0,0E0,0E0,0E0,0E0,0E0,0E0,0E0,0E0,0E0,0E0,0E0,0E0,0E0,0E0,0E0,0E0,0E0,0E0,0E0,0E0,0E0],"parents":[2147483647,0,0,1,1,2,2,3,3,4,4,5,5,6,6,7,7,8,8,9,9,10,10,11,11,12,12,13,13,14,14,15,15,16,16,17,17,18,18,19,19,20,20,21,21,22,22,23,23,24,24,25,25,26,26,27,27,28,28,29,29,30,30,33,33,34,34,35,35,36,36,37,37,38,38,39,39,40,40,41,41,42,42,43,43,44,44,45,45,46,46,47,47,48,48,49,49,50,50,51,51,52,52,53,53,54,54,55,55,56,56,58,58,59,59,60,60,61,61,62,62,65,65,67,67,68,68,69,69,70,70,72,72,73,73,74,74,75,75,76,76,77,77,78,78,79,79,80,80,81,81,82,82,83,83,84,84,86,86,87,87,88,88,89,89,91,91,92,92,93,93,94,94,95,95,96,96,97,97,98,98,103,103,104,104,105,105,106,106,107,107,108,108,109,109,111,111,112,112,113,113,114,114,115,115,116,116,117,117,118,118,120,120,123,123,124,124,125,125,126,126,128,128,130,130,132,132,133,133,134,134,135,135,136,136,137,137,138,138,139,139,140,140,141,141,142,142,143,143,144,144,145,145,146,146,149,149,150,150,151,151,153,153,154,154,155,155,156,156,158,158,159,159,160,160,161,161,162,162,166,166,167,167,168,168,169,169,171,171,172,172,175,175,176,176,179,179,180,180,181,181,182,182,183,183,184,184,185,185,186,186,187,187,188,188,190,190,192,192,196,196,198,198,199,199,200,200,201,201,202,202,203,203,204,204,205,205,206,206,207,207,210,210,211,211,212,212],"right_children":[2,4,6,8,10,12,14,16,18,20,22,24,26,28,30,32,34,36,38,40,42,44,46,48,50,52,54,56,58,60,62,-1,-1,64,66,68,70,72,74,76,78,80,82,84,86,88,90,92,94,96,98,100,102,104,106,108,110,-1,112,114,116,118,120,-1,-1,122,-1,124,126,128,130,-1,132,134,136,138,140,142,144,146,148,150,152,154,156,-1,158,160,162,164,-1,166,168,170,172,174,176,178,180,-1,-1,-1,-1,182,184,186,188,190,192,194,-1,196,198,200,202,204,206,208,210,-1,212,-1,-1,214,216,218,220,-1,222,-1,224,-1,226,228,230,232,234,236,238,240,242,244,246,248,250,252,254,-1,-1,256,258,260,-1,262,264,266,268,-1,270,272,274,276,278,-1,-1,-1,280,282,284,286,-1,288,290,-1,-1,292,294,-1,-1,296,298,300,302,304,306,308,310,312,314,-1,316,-1,318,-1,-1,-1,320,-1,322,324,326,328,330,332,334,336,338,340,-1,-1,342,344,346,-1,-1,-1,-1,-1,-1,-1,-1,-1,-1,-1,-1,-1,-1,-1,-1,-1,-1,-1,-1,-1,-1,-1,-1,-1,-1,-1,-1,-1,-1,-1,-1,-1,-1,-1,-1,-1,-1,-1,-1,-1,-1,-1,-1,-1,-1,-1,-1,-1,-1,-1,-1,-1,-1,-1,-1,-1,-1,-1,-1,-1,-1,-1,-1,-1,-1,-1,-1,-1,-1,-1,-1,-1,-1,-1,-1,-1,-1,-1,-1,-1,-1,-1,-1,-1,-1,-1,-1,-1,-1,-1,-1,-1,-1,-1,-1,-1,-1,-1,-1,-1,-1,-1,-1,-1,-1,-1,-1,-1,-1,-1,-1,-1,-1,-1,-1,-1,-1,-1,-1,-1,-1,-1,-1,-1,-1,-1,-1,-1,-1,-1,-1,-1,-1],"split_conditions":[-4.392857E0,-1.36E2,5.8E1,-4.2E2,1.5170664E1,5.9651787E1,8.955895E1,-4.92E2,-9.945536E1,9.489808E1,3.7290053E0,1.3067132E1,4.2689996E0,-4.796574E1,2.91E2,5.59E2,-2.9325E2,5.058296E1,-2.12E2,-1.150625E2,1.16333336E2,4.74E2,6.28966E1,6.6660237E0,8.0074165E1,5.7002E4,4.447163E1,2.1471428E2,1.7743537E-1,8.695536E1,9.681194E1,-1.8037476E-2,-7.103215E-2,5.686119E1,4.8379044E1,1.8451881E1,4.7E1,2.7E2,3.7574142E1,-4.9746193E1,-1.9290466E1,1.4766667E2,2.03E2,-7.288393E1,5.9944576E1,3.1424658E1,7E0,-1.47E2,-7.133758E1,-1.9333334E1,-2.3E1,6.71049E1,6.099107E1,-5.1126762E1,8.314723E1,3.2257126E1,6.21E2,-2.1262415E-2,4.2330982E1,9.712132E1,5.1048485E1,1.4114285E2,1.3186607E2,4.036478E-2,-1.5142805E-2,2.8579614E0,-6.717023E-2,-1.27166664E2,-2.0097322E2,2.8293465E1,-2.3923215E2,2.4058302E-4,-2.8233334E2,-1.5066667E2,-8.047321E1,6.6514435E1,7.5803E4,3.7938225E1,4.4E1,-2.3223215E1,4.302348E1,1.86E2,6.778386E1,-1.9633333E2,2.8818285E1,2.568757E-2,5.13E2,-2.6339285E1,1.0166667E1,5.855072E1,3.4590147E-2,2.3161497E1,-9.1E1,-2.3333334E1,3.3549488E1,1.5143545E1,9.442595E1,1.26166664E2,1.62E2,-4.0572537E-3,-5.3851683E-2,-2.3613395E-2,-7.328448E-2,1.0576786E2,1.9955439E1,7.5739164E0,3.77E2,2.0008533E1,7.8558264E0,-2.6E1,2.0744648E-2,6.8970976E0,-4.039088E1,2.4714285E1,7.9333336E1,5.8166668E1,8.764477E1,3.16E2,5.1E1,6.36225E-2,4.8E2,2.6590308E-2,-4.8396096E-2,-2.728482E2,1.3979636E0,9.200202E0,3.6075E5,4.4234795E-4,7.7666664E1,5.5442918E-2,-2.62E2,-2.3714859E-2,-4.039088E1,3.915715E0,-6.199107E1,6.7276566E1,4.14E2,1.8E2,3.6927094E1,6.2047653E1,2.4971948E0,-1.0833333E1,7.647702E1,8.4666664E1,6.7881294E1,3.731421E-1,9.631581E1,1.5012146E-2,-4.809436E-2,9.558056E1,1.92E2,9.072731E0,1.787161E-2,1.4336496E1,-1.2545536E2,2.0895805E0,3.1524081E0,-1.4484997E-2,-1.3966667E2,5.2888905E1,2.2015179E1,-2.74375E1,-3.375893E1,-6.26046E-2,-7.5372476E-3,-7.2122715E-2,2.795643E0,1.1733676E1,3.0625E0,7.8551764E0,-5.017322E-2,2.77E2,1.4E1,-2.286222E-4,5.72517E-2,8.7333336E1,2.2696428E1,1.301866E-3,5.184126E-2,1.11E2,4.1705357E1,-4.5666668E1,4.92E2,5.9187E4,2.6199106E2,6.844643E1,1.158E3,7.95E1,8.857313E1,3.9137866E-2,3.1524081E0,-4.5629766E-2,-5.1126762E1,-6.5836504E-2,4.2731166E-4,-2.026661E-2,-3.254157E1,4.6412013E-2,1.7166072E2,9.470309E1,2.3866667E2,5.4E1,2.13E2,7.9124825E1,1.2841965E2,2.1666667E2,6.086794E1,4.302348E1,4.841849E-2,3.8615473E-2,7.6E2,-6.25E0,6.9E2,2.8763387E-2,-5.0320797E-2,-2.3696257E-2,3.4097407E-2,6.12103E-2,1.4704358E-2,3.0316181E-2,-1.1388204E-2,-7.059005E-2,-1.9125838E-2,-4.7482464E-2,1.0279317E-2,-6.671514E-2,-1.8874425E-2,-5.609974E-2,3.856035E-2,4.2767424E-2,-1.4908029E-3,2.2165548E-2,-3.1436324E-2,-7.030284E-2,-7.48024E-3,2.6726622E-2,-3.735178E-2,4.1254494E-2,-9.408109E-3,3.0809276E-2,-3.321138E-2,2.7582213E-2,6.1058875E-2,3.1110499E-2,-4.153694E-2,6.3170684E-3,-3.1661816E-2,6.0489047E-2,-3.439789E-5,-4.054927E-2,2.8736193E-2,-1.8953262E-2,5.071628E-2,-2.2197086E-2,2.8475324E-2,2.0641602E-4,5.4628734E-2,-2.2002153E-2,-9.95405E-4,6.609465E-2,1.8140974E-2,-2.37078E-2,3.8901463E-2,6.496162E-2,3.992334E-2,-4.5886408E-3,4.3283746E-2,-2.3692137E-2,8.741174E-3,-6.7022756E-2,-1.4947131E-2,5.0292697E-2,1.1971452E-2,-2.1284167E-2,2.6361175E-2,6.731888E-2,5.238724E-2,4.927553E-2,-3.670066E-2,-4.097654E-3,-4.425527E-2,1.7844096E-2,-4.985134E-2,3.0612275E-2,-1.3513357E-2,-3.0811753E-2,2.3515048E-2,9.270764E-3,4.3180957E-2,5.6191534E-2,-1.8162742E-2,-6.539108E-2,-3.4644514E-2,-4.576792E-3,-4.0513515E-2,1.7200314E-2,-5.534656E-2,1.7697964E-2,-2.5106743E-2,-2.9381773E-2,1.7397195E-2,-5.7725016E-2,6.283724E-3,8.122355E-3,5.9931763E-2,2.2274707E-2,-4.556753E-2,3.853168E-2,-1.5978532E-2,-6.677475E-2,1.6093805E-2,1.4578875E-2,-3.954844E-2,-4.5084158E-5,5.3972773E-2,-1.5770659E-2,-5.6056622E-2,3.5213396E-2,3.9409976E-3,3.944798E-2,6.395048E-2,-5.3046644E-2,1.9262213E-2,-2.5584975E-2,2.8838266E-2,-3.06165E-2,4.389065E-2,2.9277511E-2,-2.5885504E-2,7.654323E-3,4.8166305E-2,-7.104312E-2,-3.336075E-2,-7.5952266E-3,-5.3626303E-2,-3.510895E-2,3.0758101E-3,5.3478207E-2,-7.6414947E-3,4.0263546E-4,-2.0402266E-2,-6.1356E-2,7.4032145E-3,-5.190527E-2,1.3216468E-2,2.8286526E-2,6.323818E-2],"split_indices":[12,3,3,3,7,12,10,3,12,10,10,6,10,8,3,0,12,4,3,12,2,0,4,10,9,11,4,12,6,12,10,0,0,5,7,9,1,0,4,8,8,1,0,12,5,9,3,3,8,1,3,5,12,8,9,10,0,0,7,10,6,12,12,0,0,10,0,1,12,9,12,0,2,2,12,9,11,6,1,12,6,0,6,2,7,0,0,12,1,9,0,9,8,2,9,6,10,1,0,0,0,0,0,12,7,6,0,9,7,2,0,7,8,12,2,1,5,3,1,0,0,0,0,12,10,6,11,0,2,0,3,0,8,10,12,9,0,0,6,5,7,1,9,2,9,7,10,0,0,10,0,7,0,4,12,10,6,0,1,7,9,12,12,0,0,0,10,9,12,10,0,0,1,0,0,2,12,0,0,0,12,2,0,11,12,12,0,1,9,0,6,0,8,0,0,0,8,0,12,10,2,2,0,9,12,2,6,6,0,0,0,8,0,0,0,0,0,0,0,0,0,0,0,0,0,0,0,0,0,0,0,0,0,0,0,0,0,0,0,0,0,0,0,0,0,0,0,0,0,0,0,0,0,0,0,0,0,0,0,0,0,0,0,0,0,0,0,0,0,0,0,0,0,0,0,0,0,0,0,0,0,0,0,0,0,0,0,0,0,0,0,0,0,0,0,0,0,0,0,0,0,0,0,0,0,0,0,0,0,0,0,0,0,0,0,0,0,0,0,0,0,0,0,0,0,0,0,0,0,0,0,0,0,0,0,0,0,0,0,0,0,0,0,0,0,0,0],"split_type":[0,0,0,0,0,0,0,0,0,0,0,0,0,0,0,0,0,0,0,0,0,0,0,0,0,0,0,0,0,0,0,0,0,0,0,0,0,0,0,0,0,0,0,0,0,0,0,0,0,0,0,0,0,0,0,0,0,0,0,0,0,0,0,0,0,0,0,0,0,0,0,0,0,0,0,0,0,0,0,0,0,0,0,0,0,0,0,0,0,0,0,0,0,0,0,0,0,0,0,0,0,0,0,0,0,0,0,0,0,0,0,0,0,0,0,0,0,0,0,0,0,0,0,0,0,0,0,0,0,0,0,0,0,0,0,0,0,0,0,0,0,0,0,0,0,0,0,0,0,0,0,0,0,0,0,0,0,0,0,0,0,0,0,0,0,0,0,0,0,0,0,0,0,0,0,0,0,0,0,0,0,0,0,0,0,0,0,0,0,0,0,0,0,0,0,0,0,0,0,0,0,0,0,0,0,0,0,0,0,0,0,0,0,0,0,0,0,0,0,0,0,0,0,0,0,0,0,0,0,0,0,0,0,0,0,0,0,0,0,0,0,0,0,0,0,0,0,0,0,0,0,0,0,0,0,0,0,0,0,0,0,0,0,0,0,0,0,0,0,0,0,0,0,0,0,0,0,0,0,0,0,0,0,0,0,0,0,0,0,0,0,0,0,0,0,0,0,0,0,0,0,0,0,0,0,0,0,0,0,0,0,0,0,0,0,0,0,0,0,0,0,0,0,0,0,0,0,0,0,0,0,0,0,0,0,0,0,0,0,0,0,0,0,0,0,0,0],"sum_hessian":[1.9587177E3,9.3708496E2,1.0216327E3,2.2841602E2,7.0866895E2,6.115545E2,4.100782E2,3.504414E1,1.9337187E2,3.2123782E2,3.8743115E2,3.4934595E2,2.6220856E2,1.2153288E2,2.8854532E2,2.1779423E1,1.3264719E1,1.11763E2,8.160887E1,1.9563428E2,1.2560355E2,1.0331691E2,2.8411423E2,1.8067375E2,1.686722E2,5.9084625E1,2.0312392E2,4.5711193E1,7.582169E1,2.20439E2,6.8106316E1,1.0247439E0,2.0754679E1,2.6470149E0,1.0617704E1,9.0894356E1,2.0868647E1,3.023178E1,5.137709E1,4.9201355E1,1.4643292E2,7.14711E1,5.413245E1,9.287938E1,1.0437536E1,2.7692654E2,7.187704E0,1.02583374E2,7.809038E1,1.4430682E2,2.436537E1,4.0735936E0,5.5011032E1,7.982064E1,1.2330328E2,3.834194E1,7.36925E0,1.7966851E0,7.402501E1,1.1969319E2,1.0074581E2,1.9776169E1,4.8330147E1,1.0990033E0,1.5480114E0,4.3698273E0,6.247877E0,2.7090714E1,6.3803642E1,1.0559474E1,1.0309172E1,1.0479732E0,2.9183807E1,2.7780346E1,2.3596746E1,1.6965858E1,3.2235497E1,1.3394812E2,1.2484795E1,6.736685E1,4.1042495E0,6.111837E0,4.802061E1,3.8448196E1,5.443118E1,1.3441452E0,9.093391E0,1.16737144E2,1.6018939E2,5.2974744E0,1.89023E0,2.2656374E1,7.9926994E1,1.6007048E1,6.2083332E1,4.5968275E0,1.3970999E2,3.766911E0,2.059846E1,1.8242688E0,2.249325E0,1.2734765E0,5.3737556E1,5.4571156E1,2.5249483E1,1.10506256E2,1.2797025E1,4.8898325E0,3.345211E1,6.2961435E0,1.0731064E0,6.956761E1,4.457397E0,6.741383E1,5.2279354E1,6.702244E1,3.3723377E1,9.07325E0,1.0702919E1,1.817698E1,3.0153168E1,1.3464243E0,3.023403E0,1.3056275E1,1.4034437E1,1.8123901E1,4.567974E1,1.046576E0,9.512898E0,3.272492E0,7.0366797E0,2.0491526E0,2.7134655E1,7.1349936E0,2.0645351E1,5.517246E0,1.80795E1,1.0819536E1,6.146322E0,3.1360989E0,2.90994E1,1.0495295E2,2.8995169E1,5.4265904E0,7.0582047E0,4.918846E1,1.8178392E1,1.5916978E0,2.5125518E0,4.050578E0,2.0612588E0,4.6956367E1,1.0642446E0,3.6593773E0,3.4788822E1,1.0385202E1,4.4045975E1,1.5486348E0,7.5447564E0,9.5903206E1,2.0833939E1,1.5488464E2,5.3047514E0,3.998263E0,1.2992115E0,1.44878025E1,8.168571E0,1.8091692E1,6.1835304E1,1.4258996E1,1.7480507E0,1.7524733E1,4.45586E1,1.046249E0,3.5505786E0,9.765319E1,4.2056805E1,1.5737767E0,2.1931343E0,5.622332E0,1.4976128E1,2.3333391E1,3.1237762E1,8.669615E0,1.6579868E1,2.6386654E0,1.0786759E2,8.491409E0,4.305616E0,1.0955366E0,3.7942958E0,1.2463969E0,3.2205715E1,5.2486577E0,1.0474856E0,1.0206723E0,6.8546936E1,1.643742E0,2.813655E0,1.8690046E1,4.872379E1,1.4543418E1,3.7735935E1,2.7116043E1,3.990639E1,2.9436045E1,4.287333E0,2.0667312E0,7.0065184E0,1.0936012E0,9.609318E0,8.346343E0,2.1806824E1,2.410602E0,1.0645674E1,3.3388236E0,1.0695614E1,1.5215973E1,2.9079275E0,4.126889E1,4.410848E0,8.490148E0,1.0227509E0,1.4991683E0,5.5375113E0,2.611062E1,1.0240341E0,6.0405693E0,1.094424E0,8.880515E0,1.1764836E1,3.9929237E0,1.5243223E0,1.6780735E1,1.2987645E0,2.1419816E0,8.677555E0,4.8523126E0,1.2940091E0,1.6164886E0,1.5196104E0,1.0906291E1,1.8193108E1,5.0881786E0,9.986478E1,2.130133E1,7.6938376E0,4.3805127E0,1.0460776E0,3.0441747E0,4.01403E0,2.3177507E0,4.687071E1,6.1908956E0,1.1987496E1,1.0480927E0,3.0024853E0,1.0171498E0,1.0441091E0,4.5891174E1,1.0651946E0,2.5642529E0,1.0951245E0,1.4692396E1,2.0096424E1,3.9120731E0,6.4731293E0,2.1411507E1,2.2634468E1,5.996267E0,1.5484895E0,8.800026E1,7.9029465E0,5.1527257E0,1.5681212E1,1.1102652E2,4.3858124E1,3.5341952E0,1.7705562E0,1.8242567E0,6.344315E0,1.5992202E0,1.6492472E1,1.0671472E1,5.1163834E1,2.295658E0,1.1963338E1,1.105494E1,6.469792E0,4.3534187E1,1.0244118E0,7.768899E1,1.99642E1,2.062017E1,2.1436634E1,1.5991284E0,4.023204E0,1.1379681E1,3.596447E0,1.6187342E1,7.146049E0,2.7290026E1,3.9477377E0,1.3163316E0,7.3532834E0,1.4057164E1,2.5227048E0,1.0941056E0,1.5445598E0,1.062711E2,1.5964911E0,2.121814E0,6.369595E0,1.5701244E0,2.7354915E0,1.5467172E0,2.2475784E0,2.5392214E1,6.8135004E0,2.676385E1,4.1783085E1,1.7442039E0,1.069451E0,5.908369E0,1.2781676E1,4.6009842E1,2.71395E0,3.2143779E0,1.1329041E1,8.4083E0,2.9327635E1,2.354151E1,3.5745342E0,1.4592235E1,2.5314157E1,1.9204178E1,1.0231866E1,2.4681466E0,1.8191866E0,1.0458431E0,1.0208881E0,8.295079E0,1.3142385E0,1.747214E0,6.5991287E0,1.0118534E1,1.168829E1],"tree_param":{"num_deleted":"0","num_feature":"13","num_nodes":"347","size_leaf_vector":"1"}},{"base_weights":[-1.6009374E-2,3.1731072E-1,-5.165157E-1,-7.272928E-1,4.778804E-1,-8.220974E-1,3.6058468E-1,-2.464371E-1,-1.3726796E0,8.59952E-1,4.290466E-2,-4.3834326E-1,-1.1635699E0,8.1292236E-1,-5.5796172E-2,-1.3531487E0,3.0420104E-1,-1.1005025E0,-1.6467847E0,2.557975E-1,1.1635239E0,-4.943674E-1,8.3503425E-1,-1.0434266E0,3.5383818E-1,-1.4786972E0,-4.782115E-1,1.3029557E0,5.9693223E-1,-7.5290835E-1,8.1565183E-1,-1.6355053E0,-6.535211E-1,-2.4264261E-1,7.231108E-1,-6.244311E-1,-1.2874252E0,-6.596622E-2,-1.6969841E-2,8.823257E-1,-1.4222632E-1,7.2393745E-1,1.3172901E0,8.5681945E-1,-6.7918664E-1,1.554189E0,5.286073E-1,-1.4562101E0,-7.0814925E-1,5.389188E-1,-8.4096265E-1,9.453346E-2,-1.5210159E0,2.889127E-1,-7.455693E-1,-8.614449E-3,1.4117187E0,3.499604E-2,1.0731257E0,9.041401E-2,-9.539972E-1,4.5618972E-1,1.3339658E0,-1.7147321E-2,-6.6019334E-2,-5.5208687E-2,1.4358415E-1,5.764052E-1,-9.7357816E-1,-1.1881555E0,1.0236931E0,3.4911662E-1,-1.1277381E0,3.043621E-4,-1.3727747E0,1.0967202E0,-9.292549E-1,-6.0493827E-1,2.0810702E-1,1.0732452E0,-2.3024426E-1,8.827675E-1,1.444268E0,-4.5177087E-1,1.2446747E0,1.5174999E0,-7.703579E-1,-1.9693382E-3,1.5844603E0,1.2025385E-1,9.22916E-1,-9.2657685E-1,-1.7143887E0,-5.1426115E-3,-9.2808855E-1,6.339943E-1,-1.1240093E0,-1.542346E0,1.4466275E-1,7.86212E-1,-3.7794754E-2,-1.6857301E0,-1.1294936E0,-1.6472286E-1,8.248578E-1,-1.1319453E0,-1.5992591E-1,5.6415177E-3,1.497215E0,-4.0882877E-1,7.352152E-1,5.9944093E-1,1.450651E0,5.862012E-1,-9.948067E-1,-1.0622035E0,7.91824E-1,1.0960747E0,-5.1758233E-2,7.935242E-1,6.406353E-2,-2.97729E-2,6.1887735E-1,-4.54736E-1,9.1987324E-1,8.780784E-2,-1.3565762E0,1.5014901E-3,-5.9099983E-2,-4.0052512E-1,1.1803956E0,4.4409413E-2,-4.299947E-2,-6.475251E-2,-1.0486635E-1,-5.5548227E-3,-1.4371947E0,7.3414207E-1,1.4156985E0,-1.2855383E0,7.3090405E-3,-1.1480323E0,-3.455185E-1,6.378858E-1,-2.5412086E-1,1.1746724E0,-5.5386156E-2,-4.4711895E-2,-5.718231E-2,1.1087537E0,3.476242E-1,-5.4643508E-2,1.4754131E0,-5.454819E-2,8.289528E-2,7.3406625E-1,1.4791684E0,1.764957E-2,6.2701255E-2,-1.1313577E0,-2.5195676E-1,6.013427E-1,6.4727925E-2,4.083074E-1,-2.7849498E-1,-1.1327875E-1,1.0644557E0,-2.9789665E-1,-1.3161685E0,-2.3657925E-2,-6.910228E-2,2.7702525E-1,-7.925869E-1,4.5298245E-2,-9.8834133E-1,-6.375408E-2,9.1455394E-1,8.124354E-3,-6.05364E-2,-1.3988693E-2,-6.789303E-2,6.450305E-1,-4.649844E-2,4.614223E-2,1.8285634E-3,2.0554023E-2,-1.7060872E0,-1.275539E0,-5.370774E-1,-6.795316E-1,1.0848967E0,1.0441914E0,-1.65456E-2,-1.4344476E0,-5.994596E-1,-3.7020245E-1,1.0485445E0,4.2057288E-1,6.265799E-2,-9.349616E-1,1.5405945E-1,1.2800558E0,1.14675105E-1,5.756379E-2,1.1248659E0,9.2470163E-1,6.460849E-2,1.1606902E0,-2.3164853E-1,-1.3009999E-2,-4.924746E-2,-1.2137532E0,-3.9204374E-2,4.4765554E-2,2.3733618E-4,6.1280217E-2,5.1108015E-1,-7.9091513E-1,8.96957E-1,5.260387E-2,-3.569362E-1,3.969572E-2,-7.3071215E-3,9.286257E-3,-4.438901E-2,5.1760923E-2,-5.69301E-4,3.163664E-2,-1.986438E-2,-5.9221495E-2,-2.699066E-2,-4.517607E-2,1.5802613E-2,5.7405878E-2,1.3675221E-2,1.6674284E-2,-2.6084596E-2,-1.836255E-2,-5.907741E-2,1.2880278E-2,5.144959E-2,6.071619E-3,5.85186E-2,1.4589215E-3,-6.1395135E-2,1.135593E-2,-5.1355105E-2,7.409528E-3,-3.5703115E-2,3.780436E-2,-5.362308E-3,-1.7042495E-2,5.3172003E-2,5.00014E-2,1.7791864E-2,-4.0581055E-2,8.706726E-3,-3.6656314E-3,4.7398765E-2,-2.012671E-2,3.0980743E-2,3.578782E-2,-4.0964473E-2,3.933706E-2,6.000874E-2,-2.2795131E-2,3.801959E-2,3.6502887E-2,-2.1241838E-2,1.1467094E-3,6.1835077E-2,-5.9827436E-2,-3.71546E-2,-1.4878203E-2,4.5750864E-2,-1.6747264E-2,4.8661087E-2,9.794758E-3,5.1754005E-2,2.0345957E-4,-4.4865236E-2,3.335176E-2,-2.4764547E-2,2.8233044E-2,5.5554647E-2,-3.3728227E-2,1.15500055E-2,-5.8125325E-2,-4.0352163E-3,-3.2234486E-2,1.721647E-2,-4.4925965E-2,1.0471666E-2,-6.5542E-2,-3.0413648E-2,5.8369795E-3,-4.4470273E-2,2.7675422E-2,6.0376126E-2,-2.2181543E-4,4.355225E-2,-2.5967296E-4,-6.774893E-2,-5.5318307E-2,-2.7135458E-2,2.832227E-2,-3.2147486E-2,3.9323483E-2,-3.7756648E-2,2.6890586E-4,5.4590117E-2,5.6911204E-3,4.78978E-2,-6.154444E-2,2.7073408E-3,-3.4784183E-2,2.0717172E-2,1.6051214E-2,-3.0398633E-2,-7.441416E-4,5.3319056E-2,-9.642779E-3,3.746688E-2,2.6935153E-2,-4.8594415E-2,-2.4358839E-2,2.4164472E-2,5.771398E-2,1.9903468E-2,-4.5223475E-2,2.230409E-2,-1.7415121E-2,3.1131065E-2,1.9539198E-2,5.9101142E-2,4.524105E-2,5.492293E-3,1.4327758E-2,5.461568E-2,1.8014578E-2,-4.6048835E-2,-5.220142E-2,6.281866E-3,-4.3600958E-2,1.513766E-2,-1.40655385E-2,3.619321E-2,4.840731E-2,-5.4632742E-2,4.979489E-2,-1.6394913E-2,-5.027085E-2,3.6032088E-2],"categories":[],"categories_nodes":[],"categories_segments":[],"categories_sizes":[],"default_left":[0,0,0,0,0,0,0,0,0,0,0,0,0,0,0,0,0,0,0,0,0,0,0,0,0,0,0,0,0,0,0,0,0,0,0,0,0,0,0,0,0,0,0,0,0,0,0,0,0,0,0,0,0,0,0,0,0,0,0,0,0,0,0,0,0,0,0,0,0,0,0,0,0,0,0,0,0,0,0,0,0,0,0,0,0,0,0,0,0,0,0,0,0,0,0,0,0,0,0,0,0,0,0,0,0,0,0,0,0,0,0,0,0,0,0,0,0,0,0,0,0,0,0,0,0,0,0,0,0,0,0,0,0,0,0,0,0,0,0,0,0,0,0,0,0,0,0,0,0,0,0,0,0,0,0,0,0,0,0,0,0,0,0,0,0,0,0,0,0,0,0,0,0,0,0,0,0,0,0,0,0,0,0,0,0,0,0,0,0,0,0,0,0,0,0,0,0,0,0,0,0,0,0,0,0,0,0,0,0,0,0,0,0,0,0,0,0,0,0,0,0,0,0,0,0,0,0,0,0,0,0,0,0,0,0,0,0,0,0,0,0,0,0,0,0,0,0,0,0,0,0,0,0,0,0,0,0,0,0,0,0,0,0,0,0,0,0,0,0,0,0,0,0,0,0,0,0,0,0,0,0,0,0,0,0,0,0,0,0,0,0,0,0,0,0,0,0,0,0,0,0,0,0,0,0,0,0,0,0,0,0,0,0,0,0,0,0,0,0,0,0,0,0,0,0,0,0,0,0,0,0,0,0,0,0,0,0,0,0,0,0,0,0,0,0,0,0,0,0,0,0,0,0],"id":3,"left_children":[1,3,5,7,9,11,13,15,17,19,21,23,25,27,29,31,33,35,37,39,41,43,45,47,49,51,53,55,57,59,61,63,65,67,69,71,73,-1,-1,75,77,79,81,83,85,87,89,91,93,95,97,99,101,103,105,-1,107,109,111,113,115,117,119,-1,-1,-1,121,123,125,127,129,131,133,-1,135,137,139,141,143,145,147,149,151,153,155,157,159,-1,161,163,165,167,169,171,173,175,177,179,181,183,-1,185,187,189,191,193,195,-1,197,199,201,203,205,207,209,211,213,215,217,219,-1,-1,221,223,225,227,229,-1,-1,231,233,-1,-1,-1,235,-1,237,239,241,243,-1,245,247,249,251,253,-1,255,-1,257,259,261,263,-1,265,267,269,-1,-1,271,273,275,-1,277,279,281,283,285,287,-1,-1,289,291,-1,293,295,297,-1,-1,-1,-1,299,-1,-1,-1,-1,301,303,305,307,309,311,-1,313,315,317,319,321,-1,323,325,327,329,331,333,335,-1,337,339,-1,-1,341,343,-1,-1,-1,345,347,349,-1,351,-1,-1,-1,-1,-1,-1,-1,-1,-1,-1,-1,-1,-1,-1,-1,-1,-1,-1,-1,-1,-1,-1,-1,-1,-1,-1,-1,-1,-1,-1,-1,-1,-1,-1,-1,-1,-1,-1,-1,-1,-1,-1,-1,-1,-1,-1,-1,-1,-1,-1,-1,-1,-1,-1,-1,-1,-1,-1,-1,-1,-1,-1,-1,-1,-1,-1,-1,-1,-1,-1,-1,-1,-1,-1,-1,-1,-1,-1,-1,-1,-1,-1,-1,-1,-1,-1,-1,-1,-1,-1,-1,-1,-1,-1,-1,-1,-1,-1,-1,-1,-1,-1,-1,-1,-1,-1,-1,-1,-1,-1,-1,-1,-1,-1,-1,-1,-1,-1,-1,-1,-1,-1,-1,-1,-1,-1,-1,-1,-1,-1,-1,-1],"loss_changes":[3.295638E2,1.9924457E2,2.1194936E2,4.8814796E1,1.7087802E2,7.6272705E1,3.860541E1,5.646453E1,3.2164612E0,1.00107544E2,2.0553265E2,1.333825E2,6.612579E1,9.615189E0,6.594333E1,5.004326E0,1.4432722E1,2.4740677E0,3.0200958E-1,4.6101654E1,2.3656158E1,7.245543E1,4.21848E1,2.0777313E1,2.7191813E1,1.4224945E1,2.0508886E1,5.13958E0,1.8693419E1,1.0306206E1,8.385414E0,2.723198E-1,6.4563303E0,1.7171432E1,2.1606407E1,6.433982E0,2.83033E0,0E0,0E0,2.8891273E1,1.8541523E1,3.2434887E1,1.3540192E1,1.8363285E1,5.1986153E1,2.88562E0,2.2167774E1,7.9394836E0,1.3740791E1,1.7362011E1,1.1704741E1,5.475995E0,1.138208E1,6.5283012E0,1.648507E1,0E0,2.7554512E0,1.0600376E1,5.9002E0,7.3176713E0,1.0050106E1,9.815462E0,1.7394943E0,0E0,0E0,0E0,3.026129E0,5.2746344E0,6.2302036E0,2.0735106E0,7.4373436E0,6.7866178E0,4.231971E0,0E0,1.697052E0,6.435112E0,3.4692593E0,6.5360622E0,1.3153646E1,1.9464424E1,5.9809527E0,7.2690125E0,9.707733E0,4.4760275E0,2.185398E0,1.0474396E-1,4.543187E1,0E0,2.2230225E0,8.05297E0,1.042247E1,5.733904E0,9.1096497E-1,5.150107E0,9.610008E0,1.9683464E1,3.6323447E0,1.4806061E0,5.9419746E0,1.2143233E0,0E0,7.313843E0,4.855461E0,1.0434209E1,3.7739172E0,6.2616196E0,8.123749E0,0E0,1.8693924E0,6.341839E0,4.321047E0,5.2008195E0,5.0122833E-1,4.601263E0,3.1445837E-1,7.135269E0,9.1650534E-1,2.7810364E0,1.3116338E1,5.886503E0,0E0,0E0,1.5810592E0,2.1631052E0,3.9190826E0,2.4875183E0,5.902672E-2,0E0,0E0,2.7534652E0,6.0169563E0,0E0,0E0,0E0,1.4168794E0,0E0,6.535263E-1,7.0930367E0,2.6615295E0,2.320015E0,0E0,3.8141594E0,1.054954E1,8.623225E0,9.788407E0,4.0812225E0,0E0,6.559092E0,0E0,5.068405E0,8.017679E0,5.8349686E0,3.0033264E0,0E0,4.349299E0,3.084579E0,2.2549248E0,0E0,0E0,9.054016E0,1.8439201E1,3.58807E0,0E0,5.5346537E0,7.2197742E0,5.1481853E0,6.423744E0,3.8302045E0,2.7606297E0,0E0,0E0,3.3431165E0,2.5479727E0,0E0,8.415962E0,6.859694E0,8.30835E0,0E0,0E0,0E0,0E0,1.8974006E0,0E0,0E0,0E0,0E0,3.014679E0,2.833313E0,5.6171184E0,6.224385E0,1.5371561E0,1.4658995E0,0E0,5.3438606E0,6.1088696E0,8.6262455E0,1.5744629E0,1.4225602E0,0E0,6.1227274E0,4.2651014E0,2.5043678E-1,4.791463E0,4.0628214E0,1.4560671E0,1.1819687E0,0E0,4.9686527E-1,3.525078E0,0E0,0E0,6.3272934E0,3.5903685E0,0E0,0E0,0E0,2.9232748E0,1.4285953E1,4.475894E0,0E0,5.3316693E0,0E0,0E0,0E0,0E0,0E0,0E0,0E0,0E0,0E0,0E0,0E0,0E0,0E0,0E0,0E0,0E0,0E0,0E0,0E0,0E0,0E0,0E0,0E0,0E0,0E0,0E0,0E0,0E0,0E0,0E0,0E0,0E0,0E0,0E0,0E0,0E0,0E0,0E0,0E0,0E0,0E0,0E0,0E0,0E0,0E0,0E0,0E0,0E0,0E0,0E0,0E0,0E0,0E0,0E0,0E0,0E0,0E0,0E0,0E0,0E0,0E0,0E0,0E0,0E0,0E0,0E0,0E0,0E0,0E0,0E0,0E0,0E0,0E0,0E0,0E0,0E0,0E0,0E0,0E0,0E0,0E0,0E0,0E0,0E0,0E0,0E0,0E0,0E0,0E0,0E0,0E0,0E0,0E0,0E0,0E0,0E0,0E0,0E0,0E0,0E0,0E0,0E0,0E0,0E0,0E0,0E0,0E0,0E0,0E0,0E0,0E0,0E0,0E0,0E0,0E0,0E0,0E0,0E0,0E0,0E0,0E0,0E0,0E0,0E0,0E0,0E0,0E0,0E0,0E0,0E0,0E0,0E0],"parents":[2147483647,0,0,1,1,2,2,3,3,4,4,5,5,6,6,7,7,8,8,9,9,10,10,11,11,12,12,13,13,14,14,15,15,16,16,17,17,18,18,19,19,20,20,21,21,22,22,23,23,24,24,25,25,26,26,27,27,28,28,29,29,30,30,31,31,32,32,33,33,34,34,35,35,36,36,39,39,40,40,41,41,42,42,43,43,44,44,45,45,46,46,47,47,48,48,49,49,50,50,51,51,52,52,53,53,54,54,56,56,57,57,58,58,59,59,60,60,61,61,62,62,66,66,67,67,68,68,69,69,70,70,71,71,72,72,74,74,75,75,76,76,77,77,78,78,79,79,80,80,81,81,82,82,83,83,84,84,85,85,86,86,88,88,89,89,90,90,91,91,92,92,93,93,94,94,95,95,96,96,97,97,98,98,99,99,101,101,102,102,103,103,104,104,105,105,106,106,108,108,109,109,110,110,111,111,112,112,113,113,114,114,115,115,116,116,117,117,118,118,119,119,122,122,123,123,124,124,125,125,126,126,129,129,130,130,134,134,136,136,137,137,138,138,139,139,141,141,142,142,143,143,144,144,145,145,147,147,149,149,150,150,151,151,152,152,154,154,155,155,156,156,159,159,160,160,161,161,163,163,164,164,165,165,166,166,167,167,168,168,171,171,172,172,174,174,175,175,176,176,181,181,186,186,187,187,188,188,189,189,190,190,191,191,193,193,194,194,195,195,196,196,197,197,199,199,200,200,201,201,202,202,203,203,204,204,205,205,207,207,208,208,211,211,212,212,216,216,217,217,218,218,220,220],"right_children":[2,4,6,8,10,12,14,16,18,20,22,24,26,28,30,32,34,36,38,40,42,44,46,48,50,52,54,56,58,60,62,64,66,68,70,72,74,-1,-1,76,78,80,82,84,86,88,90,92,94,96,98,100,102,104,106,-1,108,110,112,114,116,118,120,-1,-1,-1,122,124,126,128,130,132,134,-1,136,138,140,142,144,146,148,150,152,154,156,158,160,-1,162,164,166,168,170,172,174,176,178,180,182,184,-1,186,188,190,192,194,196,-1,198,200,202,204,206,208,210,212,214,216,218,220,-1,-1,222,224,226,228,230,-1,-1,232,234,-1,-1,-1,236,-1,238,240,242,244,-1,246,248,250,252,254,-1,256,-1,258,260,262,264,-1,266,268,270,-1,-1,272,274,276,-1,278,280,282,284,286,288,-1,-1,290,292,-1,294,296,298,-1,-1,-1,-1,300,-1,-1,-1,-1,302,304,306,308,310,312,-1,314,316,318,320,322,-1,324,326,328,330,332,334,336,-1,338,340,-1,-1,342,344,-1,-1,-1,346,348,350,-1,352,-1,-1,-1,-1,-1,-1,-1,-1,-1,-1,-1,-1,-1,-1,-1,-1,-1,-1,-1,-1,-1,-1,-1,-1,-1,-1,-1,-1,-1,-1,-1,-1,-1,-1,-1,-1,-1,-1,-1,-1,-1,-1,-1,-1,-1,-1,-1,-1,-1,-1,-1,-1,-1,-1,-1,-1,-1,-1,-1,-1,-1,-1,-1,-1,-1,-1,-1,-1,-1,-1,-1,-1,-1,-1,-1,-1,-1,-1,-1,-1,-1,-1,-1,-1,-1,-1,-1,-1,-1,-1,-1,-1,-1,-1,-1,-1,-1,-1,-1,-1,-1,-1,-1,-1,-1,-1,-1,-1,-1,-1,-1,-1,-1,-1,-1,-1,-1,-1,-1,-1,-1,-1,-1,-1,-1,-1,-1,-1,-1,-1,-1,-1],"split_conditions":[2.4714285E1,-2.01E2,1.48E2,-1.1899107E2,-4.3333335E0,5.1666665E0,1.3186607E2,-4.2E2,4.27E2,3.915715E0,9.442595E1,-6.413043E1,9.638222E1,6.538596E1,3.32E2,-4.92E2,2.8579614E0,-9.35E1,9.253335E1,-7.886607E1,-4.2E1,-1.4921428E2,-7.288393E1,3.915715E0,1.8522322E2,4.6738907E1,4.525E1,1.2744142E1,1.5333333E2,3.5827847E1,5.42E2,5.96E2,2.54204E5,4.18E2,4.249447E1,1.9168E5,2.66E2,-6.596622E-2,-1.6969841E-2,4.74E2,-1E2,-2.74375E1,2.7470882E1,-6.281613E1,6.5417137E0,5.6709366E1,6.4E1,5.7223213E1,4.644643E1,2.404832E1,-4.232715E1,4.6669773E1,7.2733795E1,9.781576E1,8.210847E1,-8.614449E-3,3.2294643E1,9.7671165E1,3.72E2,2.5033035E2,6.21E2,2.1471428E2,1.35E2,-1.7147321E-2,-6.6019334E-2,-5.5208687E-2,1.2946777E1,7.965847E-13,-2.5022322E2,-9.226619E1,-1.6966667E2,-3.8833332E1,2.54204E5,3.043621E-4,-9.902643E1,2.2015179E1,-1.3966667E2,-1.79E2,-2.74375E1,2.1072634E1,1.1130749E1,-2.3223215E1,7.7E1,5.368502E1,6.1739883E1,4.0492035E1,-3.8417267E1,-1.9693382E-3,5.4679E4,-4.392857E0,9.516811E1,1.40156E5,4.4513E4,2.73E2,-2.8933334E2,3.2995914E1,1.9333334E1,5.4603287E1,3.15125E2,1.4833333E1,-3.7794754E-2,-6.2E2,1.175E2,8.6E1,4.1705357E1,4.2488235E1,4.86E2,5.6415177E-3,1.12756E5,5.090293E0,2.73E2,8.30287E1,4.9003414E1,3.533654E1,-1.92E2,9.833881E1,2.47E2,7.8547615E1,6.115204E1,1.00333336E2,6.406353E-2,-2.97729E-2,2.3161497E1,1.6755989E0,5.7305504E1,6.101209E-13,1.8743568E1,1.5014901E-3,-5.9099983E-2,6.629689E1,3.5108482E1,4.4409413E-2,-4.299947E-2,-6.475251E-2,-9.0133606E1,-5.5548227E-3,4.2333053E-13,-8.410256E1,-1.3966667E2,5.13E2,7.3090405E-3,1.0457362E-1,-8.4666664E1,4.3426353E1,-3.0333334E1,6.961815E1,-5.5386156E-2,-1.42E2,-5.718231E-2,4.2689996E0,2.1147825E1,5.517857E0,7.5803E4,-5.454819E-2,3.6666667E0,-1.6492857E2,4.9757E4,1.764957E-2,6.2701255E-2,5.368502E1,1.26E2,9.7334816E1,6.4727925E-2,3.19E2,6.244865E0,1.86E2,1.76162E5,-9.0133606E1,5.330357E1,-2.3657925E-2,-6.910228E-2,2.310776E1,4.02E2,4.5298245E-2,-9.9E1,1.3474107E2,5.0141422E1,8.124354E-3,-6.05364E-2,-1.3988693E-2,-6.789303E-2,1.64256E5,-4.649844E-2,4.614223E-2,1.8285634E-3,2.0554023E-2,8.531704E0,-1.1170213E1,1.2933333E2,7.7074E4,1.8661418E0,-2.1400265E1,-1.65456E-2,7.762319E1,-7.0945945E0,7.449664E1,5.4679E4,-2.4571428E1,6.265799E-2,5.616813E1,1.43414E5,2.19078E5,8.7333336E1,7.829348E1,2.26E2,1.0069643E2,6.460849E-2,1.65048E5,4.7046173E1,-1.3009999E-2,-4.924746E-2,6.247604E1,1.4833333E2,4.4765554E-2,2.3733618E-4,6.1280217E-2,8.121178E1,5.3166668E1,8.315807E1,5.260387E-2,9.692446E1,3.969572E-2,-7.3071215E-3,9.286257E-3,-4.438901E-2,5.1760923E-2,-5.69301E-4,3.163664E-2,-1.986438E-2,-5.9221495E-2,-2.699066E-2,-4.517607E-2,1.5802613E-2,5.7405878E-2,1.3675221E-2,1.6674284E-2,-2.6084596E-2,-1.836255E-2,-5.907741E-2,1.2880278E-2,5.144959E-2,6.071619E-3,5.85186E-2,1.4589215E-3,-6.1395135E-2,1.135593E-2,-5.1355105E-2,7.409528E-3,-3.5703115E-2,3.780436E-2,-5.362308E-3,-1.7042495E-2,5.3172003E-2,5.00014E-2,1.7791864E-2,-4.0581055E-2,8.706726E-3,-3.6656314E-3,4.7398765E-2,-2.012671E-2,3.0980743E-2,3.578782E-2,-4.0964473E-2,3.933706E-2,6.000874E-2,-2.2795131E-2,3.801959E-2,3.6502887E-2,-2.1241838E-2,1.1467094E-3,6.1835077E-2,-5.9827436E-2,-3.71546E-2,-1.4878203E-2,4.5750864E-2,-1.6747264E-2,4.8661087E-2,9.794758E-3,5.1754005E-2,2.0345957E-4,-4.4865236E-2,3.335176E-2,-2.4764547E-2,2.8233044E-2,5.5554647E-2,-3.3728227E-2,1.15500055E-2,-5.8125325E-2,-4.0352163E-3,-3.2234486E-2,1.721647E-2,-4.4925965E-2,1.0471666E-2,-6.5542E-2,-3.0413648E-2,5.8369795E-3,-4.4470273E-2,2.7675422E-2,6.0376126E-2,-2.2181543E-4,4.355225E-2,-2.5967296E-4,-6.774893E-2,-5.5318307E-2,-2.7135458E-2,2.832227E-2,-3.2147486E-2,3.9323483E-2,-3.7756648E-2,2.6890586E-4,5.4590117E-2,5.6911204E-3,4.78978E-2,-6.154444E-2,2.7073408E-3,-3.4784183E-2,2.0717172E-2,1.6051214E-2,-3.0398633E-2,-7.441416E-4,5.3319056E-2,-9.642779E-3,3.746688E-2,2.6935153E-2,-4.8594415E-2,-2.4358839E-2,2.4164472E-2,5.771398E-2,1.9903468E-2,-4.5223475E-2,2.230409E-2,-1.7415121E-2,3.1131065E-2,1.9539198E-2,5.9101142E-2,4.524105E-2,5.492293E-3,1.4327758E-2,5.461568E-2,1.8014578E-2,-4.6048835E-2,-5.220142E-2,6.281866E-3,-4.3600958E-2,1.513766E-2,-1.40655385E-2,3.619321E-2,4.840731E-2,-5.4632742E-2,4.979489E-2,-1.6394913E-2,-5.027085E-2,3.6032088E-2],"split_indices":[12,3,3,12,1,1,12,3,0,10,10,8,10,9,3,3,10,12,5,12,3,12,12,10,12,4,12,4,2,4,3,0,11,0,5,11,0,0,0,0,2,12,9,8,6,9,3,12,12,6,8,5,9,10,9,0,12,10,0,12,0,12,1,0,0,0,9,4,12,8,1,1,11,0,8,9,1,2,12,6,10,12,0,9,10,5,8,0,11,12,10,11,11,0,1,10,2,5,12,1,0,3,1,3,12,6,0,0,11,7,0,4,6,7,1,10,3,9,5,1,0,0,9,10,7,4,9,0,0,5,9,0,0,0,8,0,4,8,1,0,0,10,1,7,2,5,0,3,0,10,9,12,11,0,2,12,11,0,0,9,3,10,0,0,7,0,11,8,12,0,0,7,0,0,3,12,9,0,0,0,0,11,0,0,0,0,6,8,1,11,7,8,0,5,8,5,11,8,0,4,11,11,2,9,3,12,0,11,10,0,0,6,2,0,0,0,9,1,5,0,10,0,0,0,0,0,0,0,0,0,0,0,0,0,0,0,0,0,0,0,0,0,0,0,0,0,0,0,0,0,0,0,0,0,0,0,0,0,0,0,0,0,0,0,0,0,0,0,0,0,0,0,0,0,0,0,0,0,0,0,0,0,0,0,0,0,0,0,0,0,0,0,0,0,0,0,0,0,0,0,0,0,0,0,0,0,0,0,0,0,0,0,0,0,0,0,0,0,0,0,0,0,0,0,0,0,0,0,0,0,0,0,0,0,0,0,0,0,0,0,0,0,0,0,0,0,0,0,0,0,0,0,0],"split_type":[0,0,0,0,0,0,0,0,0,0,0,0,0,0,0,0,0,0,0,0,0,0,0,0,0,0,0,0,0,0,0,0,0,0,0,0,0,0,0,0,0,0,0,0,0,0,0,0,0,0,0,0,0,0,0,0,0,0,0,0,0,0,0,0,0,0,0,0,0,0,0,0,0,0,0,0,0,0,0,0,0,0,0,0,0,0,0,0,0,0,0,0,0,0,0,0,0,0,0,0,0,0,0,0,0,0,0,0,0,0,0,0,0,0,0,0,0,0,0,0,0,0,0,0,0,0,0,0,0,0,0,0,0,0,0,0,0,0,0,0,0,0,0,0,0,0,0,0,0,0,0,0,0,0,0,0,0,0,0,0,0,0,0,0,0,0,0,0,0,0,0,0,0,0,0,0,0,0,0,0,0,0,0,0,0,0,0,0,0,0,0,0,0,0,0,0,0,0,0,0,0,0,0,0,0,0,0,0,0,0,0,0,0,0,0,0,0,0,0,0,0,0,0,0,0,0,0,0,0,0,0,0,0,0,0,0,0,0,0,0,0,0,0,0,0,0,0,0,0,0,0,0,0,0,0,0,0,0,0,0,0,0,0,0,0,0,0,0,0,0,0,0,0,0,0,0,0,0,0,0,0,0,0,0,0,0,0,0,0,0,0,0,0,0,0,0,0,0,0,0,0,0,0,0,0,0,0,0,0,0,0,0,0,0,0,0,0,0,0,0,0,0,0,0,0,0,0,0,0,0,0,0,0,0,0,0,0,0,0,0,0,0,0,0,0,0,0,0,0,0,0,0,0],"sum_hessian":[1.9734785E3,1.1848049E3,7.886736E2,1.573857E2,1.0274192E3,5.849424E2,2.037312E2,9.0980835E1,6.640487E1,5.464524E2,4.8096683E2,2.7649503E2,3.084474E2,9.719285E1,1.06538345E2,2.9743273E1,6.123756E1,3.5835907E1,3.0568962E1,1.8336693E2,3.6308548E2,2.8681012E2,1.9415672E2,1.5657945E2,1.1991556E2,2.1050143E2,9.794594E1,2.8194145E1,6.89987E1,5.9265285E1,4.727306E1,2.0237938E1,9.505335E0,2.674521E1,3.4492348E1,1.132725E1,2.4508657E1,2.9546333E1,1.0226291E0,7.076273E1,1.12604195E2,9.557209E1,2.675134E2,3.4072807E1,2.527373E2,5.67942E1,1.3736253E2,6.867973E1,8.789972E1,1.0430685E2,1.5608707E1,5.481693E0,2.0501974E2,2.5292902E1,7.265303E1,1.813659E0,2.6380487E1,3.214234E1,3.685636E1,1.1516788E1,4.77485E1,2.902425E1,1.8248812E1,1.0232896E0,1.921465E1,4.516116E0,4.989219E0,1.2712108E1,1.4033103E1,4.286106E0,3.0206244E1,3.964692E0,7.362557E0,1.5714878E0,2.293717E1,6.3627266E1,7.1354694E0,4.820691E1,6.4397285E1,6.986944E1,2.5702648E1,6.2293873E1,2.0521953E2,7.752327E0,2.632048E1,9.448158E0,2.4328914E2,1.0398475E0,5.5754353E1,6.812057E1,6.924197E1,2.4011307E1,4.466843E1,2.1190498E1,6.670922E1,9.925107E1,5.0557847E0,8.789295E0,6.819412E0,3.4619067E0,2.019786E0,1.4198203E2,6.3037712E1,1.4073464E1,1.1219439E1,4.321155E1,2.9441479E1,1.8344564E0,2.454603E1,1.992762E1,1.2214722E1,1.7494127E1,1.9362234E1,8.22088E0,3.295908E0,4.533048E1,2.4180193E0,1.2331656E1,1.6692595E1,7.6938505E0,1.055496E1,1.5219369E0,3.4672823E0,3.0953772E0,9.616731E0,3.9254384E0,1.0107665E1,1.0448608E0,3.241245E0,2.8398454E0,2.7366398E1,2.7159147E0,1.2487775E0,4.4943433E0,2.8682141E0,1.2982857E0,2.1638884E1,3.1323647E1,3.230362E1,5.2910047E0,1.8444648E0,1.4476029E1,3.373088E1,3.317303E1,3.1224258E1,6.762767E1,2.2417693E0,2.3210512E1,2.4921355E0,4.3044636E1,1.9249239E1,4.161991E0,2.0105753E2,2.2471583E0,5.5051684E0,9.583313E0,1.6737167E1,1.0599291E0,8.388229E0,1.4272037E2,1.0056878E2,3.715814E0,5.2038536E1,3.9536026E1,2.858454E1,8.345474E0,6.089649E1,9.861898E0,1.4149407E1,2.0488E0,4.261963E1,1.6077562E1,5.112936E0,1.3710508E0,6.5338165E1,2.8684887E1,7.056618E1,1.3129363E0,3.7428482E0,1.5477097E0,7.2415857E0,5.3215275E0,1.4978846E0,1.8952434E0,1.5666633E0,1.0726353E0,1.409094E2,4.964569E1,1.3392023E1,1.02903385E1,3.7831256E0,9.675353E0,1.5440853E0,2.6476513E1,1.673504E1,2.5668724E1,3.772755E0,2.3763924E0,2.2169638E1,9.958438E0,9.969182E0,5.938153E0,6.276569E0,9.158457E0,8.3356695E0,6.66315E0,1.2699084E1,4.582652E0,3.6382277E0,1.5482981E0,1.7476099E0,3.9319176E1,6.011306E0,1.3724519E0,1.0455674E0,5.984343E0,6.3473134E0,9.476025E0,7.2165694E0,5.124523E0,2.5693274E0,2.1686413E0,1.298641E0,1.846113E0,1.2492641E0,6.483114E0,3.1336167E0,1.6165327E0,2.3089058E0,7.2903657E0,2.817299E0,1.2484695E0,1.591376E0,1.9999859E1,7.3665385E0,1.5958296E0,1.2723844E0,1.798213E0,1.9840672E1,1.9198454E1,1.2125194E1,1.8375336E0,3.0466085E1,1.049638E0,4.2413664E0,1.3241519E0,1.3151877E1,1.7617619E1,1.611326E1,2.32759E1,9.89713E0,2.8757483E1,2.4667742E0,5.920129E1,8.426379E0,4.319236E0,1.8891277E1,3.1122148E0,3.993242E1,6.451621E0,1.2797619E1,2.1439254E0,2.018066E0,1.996291E1,1.8109462E2,3.3424711E0,2.1626973E0,8.564523E0,1.0187906E0,1.049409E0,1.56877575E1,4.4546356E1,9.8174E1,9.303758E1,7.531201E0,1.5432392E0,2.1725748E0,3.4682373E1,4.853655E0,2.2239939E1,6.344601E0,2.6903417E0,5.655133E0,3.1829298E1,2.906719E1,4.842938E0,5.0189605E0,1.23266535E1,1.8227539E0,1.5224605E0,1.4555102E1,3.7922003E0,1.3207359E0,1.4274762E1,5.1063408E1,2.4641655E1,4.043231E0,5.408038E1,1.6485798E1,2.612413E0,2.7091146E0,1.0438416E0,1.3986555E2,3.9632442E1,1.0013246E1,2.1439044E0,1.1248118E1,1.0965786E0,9.19376E0,1.0460188E0,2.7371068E0,1.8384663E0,7.836887E0,2.4381226E1,2.0952878E0,1.3544341E1,3.190699E0,8.728826E0,1.69399E1,1.044302E0,2.728453E0,1.2923604E0,1.084032E0,1.3464301E0,8.612008E0,3.5877435E0,6.3814383E0,4.0806746E0,1.8574781E0,1.2466006E0,5.0299683E0,5.6807165E0,3.4777403E0,3.9765847E0,4.359085E0,4.830525E0,1.8326252E0,1.5834962E0,2.999156E0,2.391627E0,1.2466006E0,3.6424187E1,2.8949888E0,1.2490827E0,4.7622232E0,2.0659454E0,4.2813683E0,1.9148349E0,7.5611897E0,5.6721487E0,1.5444204E0,1.489656E0,1.0796715E0],"tree_param":{"num_deleted":"0","num_feature":"13","num_nodes":"353","size_leaf_vector":"1"}},{"base_weights":[3.1865109E-3,3.8246694E-1,-4.325496E-1,-3.932092E-1,6.102178E-1,-8.3749735E-1,1.5093276E-1,-1.3011376E0,-1.474725E-1,9.8750407E-1,1.8002048E-1,-4.4288364E-1,-1.2227608E0,8.076074E-1,-1.1992937E-1,-6.379052E-2,-9.6019965E-1,5.4066056E-1,-7.8640366E-1,3.2154503E-1,1.2071174E0,-3.9833528E-1,9.642215E-1,-1.0365217E0,3.5692927E-1,-1.3313481E0,-6.5167345E-2,3.5216257E-1,1.3374486E0,-3.6713848E-1,8.591967E-1,-2.5950432E-1,-1.6020979E0,7.785798E-1,-3.1982523E-1,-1.2892963E0,-4.8125008E-1,4.67776E-1,-1.1799628E0,8.0310667E-1,1.3498731E0,8.817473E-1,-6.071903E-1,-1.6453417E-1,1.0957708E0,-6.5721124E-1,-1.4327452E0,7.927326E-1,-2.4265997E-1,6.662159E-2,-1.3900809E0,-3.367E-1,4.7102783E-2,-1.128083E0,5.483992E-1,1.3863086E0,-2.0124353E-2,1.8308358E-1,-9.328229E-1,-5.0695403E-3,1.2386332E0,1.1200568E-1,-1.0546353E0,-1.6538015E-2,-6.558553E-2,5.423428E-2,1.1093708E0,-1.4493546E0,4.9021798E-1,-2.4690434E-1,-1.3452498E0,-2.8063897E-2,-1.0673432E0,1.1479174E0,1.00110576E-1,-6.423445E-2,1.6659689E-1,9.7655386E-1,1.3929518E-1,-6.7374057E-1,1.3861817E0,-8.4254134E-1,1.0658902E0,8.694084E-1,-6.887163E-1,-5.3923297E-1,7.548258E-1,1.4283946E0,7.80407E-1,-1.5976491E0,-4.1622636E-1,-1.4779041E0,-3.7586533E-2,-5.1013105E-2,8.7764084E-1,-7.0698184E-1,4.9134508E-1,-6.972764E-1,7.350288E-1,-1.4142102E0,4.0609697E-1,-6.8360174E-1,2.2809024E-1,1.4201801E-3,-1.3274443E0,9.2884415E-1,5.0505146E-2,1.0842539E0,6.611588E-2,-2.1715942E-1,6.8237704E-1,-1.0451883E0,9.6257645E-1,9.857871E-1,-5.230536E-1,4.0693095E-1,1.4568921E0,-8.6427075E-1,7.451097E-1,-5.4235417E-2,3.3758205E-4,5.6468934E-2,-3.0834714E-1,4.1341183E-1,1.2825053E0,-2.4023792E-2,-6.362259E-2,-7.182438E-1,9.525969E-1,-1.7863886E-2,3.048398E-3,-1.5263737E-2,-1.3788211E0,-6.906363E-1,4.5216605E-1,6.8661615E-2,-1.3417647E0,1.4374399E0,7.996652E-1,-3.6601055E-1,4.329783E-1,2.6518391E-2,-1.981203E-2,1.1461792E0,5.149692E-1,-3.7808202E-2,3.0684927E-1,1.6602121E-2,-5.286859E-2,-1.9058019E-1,1.4065489E0,-4.796886E-2,1.0210564E-3,-8.521192E-2,1.2820411E0,-7.156015E-1,1.4144474E0,-1.0432197E0,-3.1590632E-1,-1.0226455E0,2.8260868E-2,8.3430834E-2,4.8337173E-2,-1.1418431E-2,1.4654024E0,2.757288E-1,1.0379281E0,-6.728775E-2,-6.591861E-1,-8.314543E-1,-3.670846E-2,-5.465916E-1,-1.553467E0,-2.4448533E-2,2.4431266E-2,5.973644E-1,1.537586E0,5.385527E-1,-9.0190214E-1,-7.950908E-1,7.7877164E-1,-1.0924989E0,1.9989368E-2,4.2390354E-2,1.8251215E-1,-1.4928045E0,-8.880365E-1,-1.5453361E-2,4.3073222E-2,-1.1041131E0,5.137587E-2,5.972472E-1,-2.541913E-2,-6.056593E-2,-2.0315213E-2,-3.8669527E-2,1.0850393E0,-3.3296347E-1,1.0122293E0,5.7115853E-2,2.1709327E-1,6.155924E-1,-4.4447213E-1,-5.0449806E-1,9.1215026E-1,-1.1837149E0,-2.544997E-1,-1.9767076E-2,5.2668877E-2,-3.3040904E-3,4.7729E-2,-1.2984896E0,8.3287096E-1,-3.262646E-2,7.621551E-1,5.9645515E-2,5.779573E-3,1.9854581E-2,-5.629954E-2,-7.1821115E-3,4.3961085E-2,-2.8251E-2,2.8004197E-2,-3.1067707E-2,4.4860464E-2,-2.8270066E-3,5.209565E-2,2.1402972E-2,-5.320646E-2,-6.578198E-3,4.874145E-2,-5.5852372E-2,-2.1398913E-2,-4.4467755E-2,1.8720949E-2,-2.116249E-2,4.2236615E-2,-4.2018294E-2,3.87827E-2,-5.8718026E-2,-6.8443525E-3,1.4997041E-2,6.215236E-2,3.9140694E-2,-2.4024412E-2,1.6784E-2,-2.8423885E-2,-1.9381966E-2,2.3955204E-2,5.8817398E-2,3.2775797E-2,-2.4001237E-2,2.9617965E-2,3.8412046E-2,-3.8972357E-3,-3.224637E-2,2.2565033E-2,4.5738425E-2,6.080047E-2,3.4543887E-2,-3.3322092E-2,5.4447513E-2,-3.6940174E-3,-4.193744E-2,6.5573386E-4,5.9335485E-2,1.656608E-2,-6.1063092E-2,-3.1517915E-2,5.578555E-3,-3.138156E-2,6.962221E-3,-5.221072E-2,-2.1680376E-2,2.4518998E-2,2.3998255E-2,-2.2357143E-2,2.1712076E-2,5.9507113E-2,2.7756358E-3,4.8048906E-2,3.0503128E-2,5.7417367E-2,3.5669382E-3,-4.1356042E-2,-5.8373787E-2,-1.2112224E-2,2.3665419E-2,-1.0412268E-2,-3.8745098E-2,2.835548E-2,-6.29204E-2,2.0866E-2,-1.7396847E-2,2.8468695E-2,6.392434E-2,2.6396094E-3,4.1850872E-2,-1.2785589E-2,5.6681903E-3,-4.4125505E-2,8.347656E-3,-5.344873E-2,-9.988636E-3,4.900695E-2,-5.732784E-2,2.2565308E-3,-3.0525923E-2,4.031683E-2,-5.9884734E-2,-1.6116448E-2,-2.1764675E-2,-6.222374E-2,1.7491783E-3,-5.8944788E-2,2.3733478E-2,-2.4742328E-2,3.4228895E-2,-1.750767E-2,4.1794855E-2,-2.800455E-2,4.6417E-2,4.279013E-3,-2.7248321E-2,2.4057304E-2,5.7685986E-2,-2.416154E-3,-2.5296373E-2,3.235863E-2,-9.674081E-3,4.5029946E-2,-2.2013042E-2,4.2575717E-2,-3.5238717E-2,2.2383051E-2,2.7059466E-3,4.3408424E-2,-4.780752E-2,2.1650348E-2,-4.906866E-2,1.0921298E-2,-6.45411E-2,9.779274E-3,-1.0455205E-2,5.0735965E-2,4.6471808E-2,2.0031594E-3],"categories":[],"categories_nodes":[],"categories_segments":[],"categories_sizes":[],"default_left":[0,0,0,0,0,0,0,0,0,0,0,0,0,0,0,0,0,0,0,0,0,0,0,0,0,0,0,0,0,0,0,0,0,0,0,0,0,0,0,0,0,0,0,0,0,0,0,0,0,0,0,0,0,0,0,0,0,0,0,0,0,0,0,0,0,0,0,0,0,0,0,0,0,0,0,0,0,0,0,0,0,0,0,0,0,0,0,0,0,0,0,0,0,0,0,0,0,0,0,0,0,0,0,0,0,0,0,0,0,0,0,0,0,0,0,0,0,0,0,0,0,0,0,0,0,0,0,0,0,0,0,0,0,0,0,0,0,0,0,0,0,0,0,0,0,0,0,0,0,0,0,0,0,0,0,0,0,0,0,0,0,0,0,0,0,0,0,0,0,0,0,0,0,0,0,0,0,0,0,0,0,0,0,0,0,0,0,0,0,0,0,0,0,0,0,0,0,0,0,0,0,0,0,0,0,0,0,0,0,0,0,0,0,0,0,0,0,0,0,0,0,0,0,0,0,0,0,0,0,0,0,0,0,0,0,0,0,0,0,0,0,0,0,0,0,0,0,0,0,0,0,0,0,0,0,0,0,0,0,0,0,0,0,0,0,0,0,0,0,0,0,0,0,0,0,0,0,0,0,0,0,0,0,0,0,0,0,0,0,0,0,0,0,0,0,0,0,0,0,0,0,0,0,0,0,0,0,0,0,0,0,0,0,0,0,0,0,0,0,0,0,0,0,0,0,0,0,0,0,0,0,0,0,0,0,0,0,0,0,0,0,0,0,0,0,0,0],"id":4,"left_children":[1,3,5,7,9,11,13,15,17,19,21,23,25,27,29,-1,31,33,35,37,39,41,43,45,47,49,51,53,55,57,59,61,63,65,67,69,71,73,75,77,79,81,83,85,87,89,91,93,95,97,99,101,-1,103,105,107,-1,109,111,113,115,117,119,-1,-1,121,123,125,127,129,131,133,135,137,139,-1,141,143,145,147,149,151,153,155,157,159,161,163,165,167,169,171,173,-1,175,177,179,181,183,185,187,189,191,-1,193,195,197,199,-1,201,203,205,207,209,211,213,215,217,219,-1,-1,-1,221,223,225,-1,-1,227,229,-1,-1,-1,231,233,235,237,239,241,243,245,247,-1,-1,249,251,-1,253,-1,-1,255,257,-1,-1,259,261,263,265,267,269,271,273,275,-1,-1,277,279,281,-1,283,285,287,289,291,-1,-1,293,295,297,299,301,303,305,-1,-1,307,309,311,-1,-1,313,315,317,-1,-1,-1,319,321,323,325,-1,327,329,331,333,335,337,339,-1,-1,-1,-1,341,343,-1,345,-1,-1,-1,-1,-1,-1,-1,-1,-1,-1,-1,-1,-1,-1,-1,-1,-1,-1,-1,-1,-1,-1,-1,-1,-1,-1,-1,-1,-1,-1,-1,-1,-1,-1,-1,-1,-1,-1,-1,-1,-1,-1,-1,-1,-1,-1,-1,-1,-1,-1,-1,-1,-1,-1,-1,-1,-1,-1,-1,-1,-1,-1,-1,-1,-1,-1,-1,-1,-1,-1,-1,-1,-1,-1,-1,-1,-1,-1,-1,-1,-1,-1,-1,-1,-1,-1,-1,-1,-1,-1,-1,-1,-1,-1,-1,-1,-1,-1,-1,-1,-1,-1,-1,-1,-1,-1,-1,-1,-1,-1,-1,-1,-1,-1,-1,-1,-1,-1,-1,-1,-1,-1,-1,-1,-1,-1,-1,-1,-1,-1,-1,-1],"loss_changes":[3.2159875E2,1.8403177E2,2.1409634E2,5.2628143E1,1.3041837E2,8.075305E1,6.623749E1,3.8838196E0,8.2838295E1,6.22742E1,1.7144943E2,1.2653636E2,3.3852386E1,2.5764252E1,6.424857E1,0E0,1.1591993E1,1.8846205E1,1.435775E1,2.418055E1,1.7477692E1,5.876029E1,2.3995865E1,2.2019547E1,2.9967403E1,2.035608E1,8.684544E0,1.799542E1,5.213005E0,6.6028244E1,1.756528E1,4.241103E0,3.0381012E-1,1.7060802E1,1.936214E1,1.7829666E0,1.6528114E1,2.4586508E1,6.224184E0,9.822914E0,1.8298859E1,1.07272625E1,2.320964E1,6.473582E0,1.3967178E1,1.7443314E1,4.598877E0,1.2869331E1,1.6954315E1,6.0804443E0,1.0841217E1,4.21068E0,0E0,1.748806E0,1.0085592E1,2.4765472E0,0E0,2.1750006E1,2.326062E1,9.410999E0,6.1622467E0,7.082366E0,1.5623679E0,0E0,0E0,1.2161712E1,5.3742256E0,2.2839737E-1,7.735102E0,2.4050401E-1,5.65815E-1,1.1825279E1,8.558111E0,2.335659E0,1.0276974E1,0E0,1.4789612E0,4.7661514E0,3.806768E0,4.1007056E0,7.7345886E0,1.1840665E0,7.1782646E0,9.884119E0,2.3269043E1,3.6212168E0,1.6433711E0,4.7969513E0,9.592205E0,5.102501E-1,1.0205668E1,4.18486E0,1.6644439E0,0E0,1.0961548E1,7.8314304E0,7.818545E0,3.2205164E0,9.888413E-1,8.350098E0,2.5747204E0,4.096482E0,3.1642807E0,0E0,2.7465916E-1,4.61561E0,9.271755E0,8.162693E0,0E0,1.1774826E1,1.3642576E1,1.0555931E1,4.15248E0,1.6167388E0,1.3735443E1,4.6317954E0,1.9193802E0,4.2375E0,2.5559926E0,0E0,0E0,0E0,8.575162E0,1.0680426E1,2.1442604E0,0E0,0E0,3.9679909E0,3.2431526E0,0E0,0E0,0E0,2.6855087E-1,8.489176E0,1.3793924E1,7.5227165E0,3.52557E0,1.9931488E0,5.4916067E0,8.09694E0,6.518905E0,0E0,0E0,4.116646E0,5.8234143E0,0E0,4.7864876E0,0E0,0E0,2.309273E0,5.8919067E0,0E0,0E0,4.708623E0,3.401249E0,8.5713947E-1,8.7296486E-2,9.9891815E0,1.9543392E1,2.8031516E0,2.7441568E0,1.489637E0,0E0,0E0,1.8939819E0,5.1508346E0,4.3977127E0,0E0,1.0573399E0,1.0087688E1,5.227029E0,4.5239897E0,6.678009E0,0E0,0E0,6.375557E0,2.1788483E0,2.4750676E0,6.1951904E0,2.5741947E0,8.18603E0,1.9695463E0,0E0,0E0,3.69187E0,5.147705E0,6.753153E0,0E0,0E0,3.8215294E0,2.5139306E0,2.2431092E0,0E0,0E0,0E0,4.571373E0,2.2277946E0,6.529313E0,3.554286E0,0E0,5.2517495E0,6.378938E0,8.99539E0,4.0503964E0,6.438221E0,4.8987045E0,8.793737E0,0E0,0E0,0E0,0E0,4.6223135E0,2.8289685E0,0E0,2.1945596E0,0E0,0E0,0E0,0E0,0E0,0E0,0E0,0E0,0E0,0E0,0E0,0E0,0E0,0E0,0E0,0E0,0E0,0E0,0E0,0E0,0E0,0E0,0E0,0E0,0E0,0E0,0E0,0E0,0E0,0E0,0E0,0E0,0E0,0E0,0E0,0E0,0E0,0E0,0E0,0E0,0E0,0E0,0E0,0E0,0E0,0E0,0E0,0E0,0E0,0E0,0E0,0E0,0E0,0E0,0E0,0E0,0E0,0E0,0E0,0E0,0E0,0E0,0E0,0E0,0E0,0E0,0E0,0E0,0E0,0E0,0E0,0E0,0E0,0E0,0E0,0E0,0E0,0E0,0E0,0E0,0E0,0E0,0E0,0E0,0E0,0E0,0E0,0E0,0E0,0E0,0E0,0E0,0E0,0E0,0E0,0E0,0E0,0E0,0E0,0E0,0E0,0E0,0E0,0E0,0E0,0E0,0E0,0E0,0E0,0E0,0E0,0E0,0E0,0E0,0E0,0E0,0E0,0E0,0E0,0E0,0E0,0E0,0E0,0E0,0E0,0E0,0E0,0E0,0E0,0E0,0E0,0E0],"parents":[2147483647,0,0,1,1,2,2,3,3,4,4,5,5,6,6,7,7,8,8,9,9,10,10,11,11,12,12,13,13,14,14,16,16,17,17,18,18,19,19,20,20,21,21,22,22,23,23,24,24,25,25,26,26,27,27,28,28,29,29,30,30,31,31,32,32,33,33,34,34,35,35,36,36,37,37,38,38,39,39,40,40,41,41,42,42,43,43,44,44,45,45,46,46,47,47,48,48,49,49,50,50,51,51,53,53,54,54,55,55,57,57,58,58,59,59,60,60,61,61,62,62,65,65,66,66,67,67,68,68,69,69,70,70,71,71,72,72,73,73,74,74,76,76,77,77,78,78,79,79,80,80,81,81,82,82,83,83,84,84,85,85,86,86,87,87,88,88,89,89,90,90,91,91,92,92,94,94,95,95,96,96,97,97,98,98,99,99,100,100,101,101,102,102,104,104,105,105,106,106,107,107,109,109,110,110,111,111,112,112,113,113,114,114,115,115,116,116,117,117,118,118,122,122,123,123,124,124,127,127,128,128,132,132,133,133,134,134,135,135,136,136,137,137,138,138,139,139,140,140,143,143,144,144,146,146,149,149,150,150,153,153,154,154,155,155,156,156,157,157,158,158,159,159,160,160,161,161,164,164,165,165,166,166,168,168,169,169,170,170,171,171,172,172,175,175,176,176,177,177,178,178,179,179,180,180,181,181,184,184,185,185,186,186,189,189,190,190,191,191,195,195,196,196,197,197,198,198,200,200,201,201,202,202,203,203,204,204,205,205,206,206,211,211,212,212,214,214],"right_children":[2,4,6,8,10,12,14,16,18,20,22,24,26,28,30,-1,32,34,36,38,40,42,44,46,48,50,52,54,56,58,60,62,64,66,68,70,72,74,76,78,80,82,84,86,88,90,92,94,96,98,100,102,-1,104,106,108,-1,110,112,114,116,118,120,-1,-1,122,124,126,128,130,132,134,136,138,140,-1,142,144,146,148,150,152,154,156,158,160,162,164,166,168,170,172,174,-1,176,178,180,182,184,186,188,190,192,-1,194,196,198,200,-1,202,204,206,208,210,212,214,216,218,220,-1,-1,-1,222,224,226,-1,-1,228,230,-1,-1,-1,232,234,236,238,240,242,244,246,248,-1,-1,250,252,-1,254,-1,-1,256,258,-1,-1,260,262,264,266,268,270,272,274,276,-1,-1,278,280,282,-1,284,286,288,290,292,-1,-1,294,296,298,300,302,304,306,-1,-1,308,310,312,-1,-1,314,316,318,-1,-1,-1,320,322,324,326,-1,328,330,332,334,336,338,340,-1,-1,-1,-1,342,344,-1,346,-1,-1,-1,-1,-1,-1,-1,-1,-1,-1,-1,-1,-1,-1,-1,-1,-1,-1,-1,-1,-1,-1,-1,-1,-1,-1,-1,-1,-1,-1,-1,-1,-1,-1,-1,-1,-1,-1,-1,-1,-1,-1,-1,-1,-1,-1,-1,-1,-1,-1,-1,-1,-1,-1,-1,-1,-1,-1,-1,-1,-1,-1,-1,-1,-1,-1,-1,-1,-1,-1,-1,-1,-1,-1,-1,-1,-1,-1,-1,-1,-1,-1,-1,-1,-1,-1,-1,-1,-1,-1,-1,-1,-1,-1,-1,-1,-1,-1,-1,-1,-1,-1,-1,-1,-1,-1,-1,-1,-1,-1,-1,-1,-1,-1,-1,-1,-1,-1,-1,-1,-1,-1,-1,-1,-1,-1,-1,-1,-1,-1,-1,-1],"split_conditions":[7.080357E0,-1.4E2,6.4E1,-3.67E2,-3.1666667E0,4.447163E1,8.638766E1,-4.92E2,-1.1275893E2,3.5917048E0,9.4104614E1,8.312656E0,8.396304E1,4.2753582E1,3.32E2,-6.379052E-2,-1.7758035E2,7.8551764E0,-2.12E2,5E2,2.7470882E1,-1.4339285E2,6.4491684E1,6.099107E1,7.776786E1,8.022462E0,3.87E2,-1.79E2,6.955825E1,8.80625E1,9.668069E1,5.8121555E1,4.33E2,-1.24833336E2,3.5441593E1,-9.902643E1,-7.5666664E1,-7.886607E1,-1.3966667E2,-2.5375E1,9.072731E0,6.8615E4,9.705477E0,9.6440094E1,-5.092857E1,-1.49E2,1.0324035E1,-1.07E2,-5.1126762E1,-4.4666668E1,1.158E3,1.0544007E0,4.7102783E-2,2.9832834E1,1.0784821E2,5.0141422E1,-2.0124353E-2,9.705929E1,8.966876E1,1.2583036E2,4.9003414E1,5.3487713E1,-1.14333336E2,-1.6538015E-2,-6.558553E-2,-2.728482E2,-3.04E2,9.347666E0,2.84E2,3.0569208E1,2.7E2,-1.38E2,-8.200893E1,-1.2083036E2,-9.6666664E1,-6.423445E-2,3.415414E1,4.6875866E1,-8.847584E1,1.6219147E1,-9.4181816E1,6.6904254E0,4.5784252E1,3.589462E1,-4.232715E1,-1.8357489E1,2.3817383E1,2.3666666E1,9.631581E1,4.0469437E0,-8.2781456E1,5.9187E4,3.2268208E1,-5.1013105E-2,4.4161728E1,-1.66E2,1.06923E5,3.99E2,-4.232715E1,9.6440094E1,-4.7425896E1,2.46E2,1.4766667E2,1.4201801E-3,2.978814E1,-6.5789474E1,7.877897E0,1.0576786E2,6.611588E-2,2.4714285E1,7.5E1,2.92487E5,1.5333333E2,2.248734E0,7.38E2,3.83E2,8.65755E0,-1.79E2,1.5610704E1,-5.4235417E-2,3.3758205E-4,5.6468934E-2,3.2569594E0,2.683422E0,3.0433588E1,-2.4023792E-2,-6.362259E-2,2.26E2,2.404832E1,-1.7863886E-2,3.048398E-3,-1.5263737E-2,6.34E2,3.8445172E0,5.5478043E1,2.4424103E1,2.6218E5,2.3231238E-13,3.67E2,7.6307693E0,-9.4181816E1,2.6518391E-2,-1.981203E-2,-9.35E1,-2.2766667E2,-3.7808202E-2,-7.551488E1,1.6602121E-2,-5.286859E-2,6.474633E0,0E0,-4.796886E-2,1.0210564E-3,3.6491745E1,3.43794E5,3.6666667E0,2.73613E5,5.368502E1,-3.4732143E1,-8.200893E1,1.06923E5,5.6333332E1,4.8337173E-2,-1.1418431E-2,3.731421E-1,1.9866667E2,-8.333333E0,-6.728775E-2,5.530989E1,3.070627E0,-7.0833336E1,3.076065E1,-1.6666666E1,-2.4448533E-2,2.4431266E-2,1.04E2,2.7225813E1,4.3426353E1,1.37E2,-7.3333335E0,1.7647541E1,6.389303E0,1.9989368E-2,4.2390354E-2,5.0141422E1,8.183429E1,8.533036E1,-1.5453361E-2,4.3073222E-2,3.1791304E1,8.932641E1,1.233125E2,-2.541913E-2,-6.056593E-2,-2.0315213E-2,2.25067E1,4.7180298E1,5E2,7.009331E1,5.7115853E-2,6.2006865E0,9.527509E1,2.3866667E2,1.26E2,7.0623314E1,2.765E2,9.631581E1,-1.9767076E-2,5.2668877E-2,-3.3040904E-3,4.7729E-2,-3.1746032E0,-1.7297297E1,-3.262646E-2,2.2803572E2,5.9645515E-2,5.779573E-3,1.9854581E-2,-5.629954E-2,-7.1821115E-3,4.3961085E-2,-2.8251E-2,2.8004197E-2,-3.1067707E-2,4.4860464E-2,-2.8270066E-3,5.209565E-2,2.1402972E-2,-5.320646E-2,-6.578198E-3,4.874145E-2,-5.5852372E-2,-2.1398913E-2,-4.4467755E-2,1.8720949E-2,-2.116249E-2,4.2236615E-2,-4.2018294E-2,3.87827E-2,-5.8718026E-2,-6.8443525E-3,1.4997041E-2,6.215236E-2,3.9140694E-2,-2.4024412E-2,1.6784E-2,-2.8423885E-2,-1.9381966E-2,2.3955204E-2,5.8817398E-2,3.2775797E-2,-2.4001237E-2,2.9617965E-2,3.8412046E-2,-3.8972357E-3,-3.224637E-2,2.2565033E-2,4.5738425E-2,6.080047E-2,3.4543887E-2,-3.3322092E-2,5.4447513E-2,-3.6940174E-3,-4.193744E-2,6.5573386E-4,5.9335485E-2,1.656608E-2,-6.1063092E-2,-3.1517915E-2,5.578555E-3,-3.138156E-2,6.962221E-3,-5.221072E-2,-2.1680376E-2,2.4518998E-2,2.3998255E-2,-2.2357143E-2,2.1712076E-2,5.9507113E-2,2.7756358E-3,4.8048906E-2,3.0503128E-2,5.7417367E-2,3.5669382E-3,-4.1356042E-2,-5.8373787E-2,-1.2112224E-2,2.3665419E-2,-1.0412268E-2,-3.8745098E-2,2.835548E-2,-6.29204E-2,2.0866E-2,-1.7396847E-2,2.8468695E-2,6.392434E-2,2.6396094E-3,4.1850872E-2,-1.2785589E-2,5.6681903E-3,-4.4125505E-2,